digraph Tree {
node [shape=box] ;
0 [label="X[19] <= 0.5\nentropy = 0.661\nsamples = 1157\nvalue = [[881, 276]\n[1052, 105]\n[484, 673]\n[1054, 103]]"] ;
1 [label="X[12] <= 0.5\nentropy = 0.725\nsamples = 782\nvalue = [[533, 249]\n[697, 85]\n[421, 361]\n[695, 87]]"] ;
0 -> 1 [labeldistance=2.5, labelangle=45, headlabel="True"] ;
2 [label="X[3] <= 0.5\nentropy = 0.745\nsamples = 521\nvalue = [[294, 227]\n[458, 63]\n[359, 162]\n[452, 69]]"] ;
1 -> 2 ;
3 [label="X[0] <= 0.5\nentropy = 0.75\nsamples = 385\nvalue = [[204, 181]\n[328, 57]\n[299, 86]\n[324, 61]]"] ;
2 -> 3 ;
4 [label="X[5] <= 0.5\nentropy = 0.768\nsamples = 259\nvalue = [[146, 113]\n[206, 53]\n[218, 41]\n[207, 52]]"] ;
3 -> 4 ;
5 [label="entropy = 0.729\nsamples = 195\nvalue = [[95, 100]\n[167, 28]\n[160, 35]\n[163, 32]]"] ;
4 -> 5 ;
6 [label="entropy = 0.76\nsamples = 64\nvalue = [[51, 13]\n[39, 25]\n[58, 6]\n[44, 20]]"] ;
4 -> 6 ;
7 [label="X[7] <= 0.5\nentropy = 0.628\nsamples = 126\nvalue = [[58, 68]\n[122, 4]\n[81, 45]\n[117, 9]]"] ;
3 -> 7 ;
8 [label="entropy = 0.559\nsamples = 99\nvalue = [[32, 67]\n[96, 3]\n[77, 22]\n[92, 7]]"] ;
7 -> 8 ;
9 [label="entropy = 0.361\nsamples = 27\nvalue = [[26, 1]\n[26, 1]\n[4, 23]\n[25, 2]]"] ;
7 -> 9 ;
10 [label="X[6] <= 0.5\nentropy = 0.624\nsamples = 136\nvalue = [[90, 46]\n[130, 6]\n[60, 76]\n[128, 8]]"] ;
2 -> 10 ;
11 [label="X[5] <= 0.5\nentropy = 0.552\nsamples = 101\nvalue = [[76, 25]\n[100, 1]\n[34, 67]\n[93, 8]]"] ;
10 -> 11 ;
12 [label="entropy = 0.399\nsamples = 69\nvalue = [[63, 6]\n[69, 0]\n[13, 56]\n[62, 7]]"] ;
11 -> 12 ;
13 [label="entropy = 0.576\nsamples = 32\nvalue = [[13, 19]\n[31, 1]\n[21, 11]\n[31, 1]]"] ;
11 -> 13 ;
14 [label="X[17] <= 0.5\nentropy = 0.596\nsamples = 35\nvalue = [[14, 21]\n[30, 5]\n[26, 9]\n[35, 0]]"] ;
10 -> 14 ;
15 [label="entropy = 0.471\nsamples = 22\nvalue = [[6, 16]\n[17, 5]\n[21, 1]\n[22, 0]]"] ;
14 -> 15 ;
16 [label="entropy = 0.481\nsamples = 13\nvalue = [[8, 5]\n[13, 0]\n[5, 8]\n[13, 0]]"] ;
14 -> 16 ;
17 [label="X[17] <= 0.5\nentropy = 0.497\nsamples = 261\nvalue = [[239, 22]\n[239, 22]\n[62, 199]\n[243, 18]]"] ;
1 -> 17 ;
18 [label="X[10] <= 0.5\nentropy = 0.488\nsamples = 182\nvalue = [[166, 16]\n[162, 20]\n[43, 139]\n[175, 7]]"] ;
17 -> 18 ;
19 [label="X[3] <= 0.5\nentropy = 0.443\nsamples = 135\nvalue = [[126, 9]\n[123, 12]\n[27, 108]\n[129, 6]]"] ;
18 -> 19 ;
20 [label="entropy = 0.474\nsamples = 102\nvalue = [[96, 6]\n[90, 12]\n[23, 79]\n[97, 5]]"] ;
19 -> 20 ;
21 [label="entropy = 0.292\nsamples = 33\nvalue = [[30, 3]\n[33, 0]\n[4, 29]\n[32, 1]]"] ;
19 -> 21 ;
22 [label="X[1] <= 0.5\nentropy = 0.585\nsamples = 47\nvalue = [[40, 7]\n[39, 8]\n[16, 31]\n[46, 1]]"] ;
18 -> 22 ;
23 [label="entropy = 0.64\nsamples = 34\nvalue = [[29, 5]\n[26, 8]\n[14, 20]\n[33, 1]]"] ;
22 -> 23 ;
24 [label="entropy = 0.31\nsamples = 13\nvalue = [[11, 2]\n[13, 0]\n[2, 11]\n[13, 0]]"] ;
22 -> 24 ;
25 [label="X[10] <= 0.5\nentropy = 0.484\nsamples = 79\nvalue = [[73, 6]\n[77, 2]\n[19, 60]\n[68, 11]]"] ;
17 -> 25 ;
26 [label="X[5] <= 0.5\nentropy = 0.548\nsamples = 58\nvalue = [[52, 6]\n[56, 2]\n[17, 41]\n[49, 9]]"] ;
25 -> 26 ;
27 [label="entropy = 0.518\nsamples = 46\nvalue = [[43, 3]\n[45, 1]\n[13, 33]\n[37, 9]]"] ;
26 -> 27 ;
28 [label="entropy = 0.536\nsamples = 12\nvalue = [[9, 3]\n[11, 1]\n[4, 8]\n[12, 0]]"] ;
26 -> 28 ;
29 [label="X[18] <= 0.5\nentropy = 0.227\nsamples = 21\nvalue = [[21, 0]\n[21, 0]\n[2, 19]\n[19, 2]]"] ;
25 -> 29 ;
30 [label="entropy = 0.325\nsamples = 12\nvalue = [[12, 0]\n[12, 0]\n[2, 10]\n[10, 2]]"] ;
29 -> 30 ;
31 [label="entropy = 0.0\nsamples = 9\nvalue = [[9, 0]\n[9, 0]\n[0, 9]\n[9, 0]]"] ;
29 -> 31 ;
32 [label="X[10] <= 0.5\nentropy = 0.395\nsamples = 375\nvalue = [[348, 27]\n[355, 20]\n[63, 312]\n[359, 16]]"] ;
0 -> 32 [labeldistance=2.5, labelangle=-45, headlabel="False"] ;
33 [label="X[14] <= 0.5\nentropy = 0.432\nsamples = 277\nvalue = [[256, 21]\n[259, 18]\n[53, 224]\n[263, 14]]"] ;
32 -> 33 ;
34 [label="X[8] <= 0.5\nentropy = 0.378\nsamples = 185\nvalue = [[174, 11]\n[175, 10]\n[29, 156]\n[177, 8]]"] ;
33 -> 34 ;
35 [label="X[17] <= 0.5\nentropy = 0.426\nsamples = 117\nvalue = [[109, 8]\n[108, 9]\n[22, 95]\n[112, 5]]"] ;
34 -> 35 ;
36 [label="entropy = 0.429\nsamples = 74\nvalue = [[69, 5]\n[70, 4]\n[14, 60]\n[69, 5]]"] ;
35 -> 36 ;
37 [label="entropy = 0.394\nsamples = 43\nvalue = [[40, 3]\n[38, 5]\n[8, 35]\n[43, 0]]"] ;
35 -> 37 ;
38 [label="X[12] <= 0.5\nentropy = 0.278\nsamples = 68\nvalue = [[65, 3]\n[67, 1]\n[7, 61]\n[65, 3]]"] ;
34 -> 38 ;
39 [label="entropy = 0.361\nsamples = 33\nvalue = [[30, 3]\n[32, 1]\n[5, 28]\n[32, 1]]"] ;
38 -> 39 ;
40 [label="entropy = 0.158\nsamples = 35\nvalue = [[35, 0]\n[35, 0]\n[2, 33]\n[33, 2]]"] ;
38 -> 40 ;
41 [label="X[4] <= 0.5\nentropy = 0.525\nsamples = 92\nvalue = [[82, 10]\n[84, 8]\n[24, 68]\n[86, 6]]"] ;
33 -> 41 ;
42 [label="X[2] <= 0.5\nentropy = 0.473\nsamples = 68\nvalue = [[64, 4]\n[62, 6]\n[15, 53]\n[63, 5]]"] ;
41 -> 42 ;
43 [label="entropy = 0.536\nsamples = 52\nvalue = [[48, 4]\n[47, 5]\n[14, 38]\n[47, 5]]"] ;
42 -> 43 ;
44 [label="entropy = 0.169\nsamples = 16\nvalue = [[16, 0]\n[15, 1]\n[1, 15]\n[16, 0]]"] ;
42 -> 44 ;
45 [label="X[0] <= 0.5\nentropy = 0.607\nsamples = 24\nvalue = [[18, 6]\n[22, 2]\n[9, 15]\n[23, 1]]"] ;
41 -> 45 ;
46 [label="entropy = 0.679\nsamples = 17\nvalue = [[12, 5]\n[15, 2]\n[8, 9]\n[16, 1]]"] ;
45 -> 46 ;
47 [label="entropy = 0.296\nsamples = 7\nvalue = [[6, 1]\n[7, 0]\n[1, 6]\n[7, 0]]"] ;
45 -> 47 ;
48 [label="X[7] <= 0.5\nentropy = 0.274\nsamples = 98\nvalue = [[92, 6]\n[96, 2]\n[10, 88]\n[96, 2]]"] ;
32 -> 48 ;
49 [label="X[15] <= 0.5\nentropy = 0.187\nsamples = 76\nvalue = [[72, 4]\n[76, 0]\n[5, 71]\n[75, 1]]"] ;
48 -> 49 ;
50 [label="X[0] <= 0.5\nentropy = 0.26\nsamples = 48\nvalue = [[44, 4]\n[48, 0]\n[5, 43]\n[47, 1]]"] ;
49 -> 50 ;
51 [label="entropy = 0.317\nsamples = 36\nvalue = [[32, 4]\n[36, 0]\n[5, 31]\n[35, 1]]"] ;
50 -> 51 ;
52 [label="entropy = 0.0\nsamples = 12\nvalue = [[12, 0]\n[12, 0]\n[0, 12]\n[12, 0]]"] ;
50 -> 52 ;
53 [label="entropy = 0.0\nsamples = 28\nvalue = [[28, 0]\n[28, 0]\n[0, 28]\n[28, 0]]"] ;
49 -> 53 ;
54 [label="X[0] <= 0.5\nentropy = 0.48\nsamples = 22\nvalue = [[20, 2]\n[20, 2]\n[5, 17]\n[21, 1]]"] ;
48 -> 54 ;
55 [label="X[12] <= 0.5\nentropy = 0.475\nsamples = 16\nvalue = [[14, 2]\n[14, 2]\n[4, 12]\n[16, 0]]"] ;
54 -> 55 ;
56 [label="entropy = 0.518\nsamples = 10\nvalue = [[8, 2]\n[9, 1]\n[3, 7]\n[10, 0]]"] ;
55 -> 56 ;
57 [label="entropy = 0.325\nsamples = 6\nvalue = [[6, 0]\n[5, 1]\n[1, 5]\n[6, 0]]"] ;
55 -> 57 ;
58 [label="X[12] <= 0.5\nentropy = 0.325\nsamples = 6\nvalue = [[6, 0]\n[6, 0]\n[1, 5]\n[5, 1]]"] ;
54 -> 58 ;
59 [label="entropy = 0.0\nsamples = 4\nvalue = [[4, 0]\n[4, 0]\n[0, 4]\n[4, 0]]"] ;
58 -> 59 ;
60 [label="entropy = 0.5\nsamples = 2\nvalue = [[2, 0]\n[2, 0]\n[1, 1]\n[1, 1]]"] ;
58 -> 60 ;
}