digraph Tree {
node [shape=box] ;
0 [label="X[19] <= 0.5\nentropy = 0.661\nsamples = 1157\nvalue = [[881, 276]\n[1052, 105]\n[484, 673]\n[1054, 103]]"] ;
1 [label="X[12] <= 0.5\nentropy = 0.725\nsamples = 782\nvalue = [[533, 249]\n[697, 85]\n[421, 361]\n[695, 87]]"] ;
0 -> 1 [labeldistance=2.5, labelangle=45, headlabel="True"] ;
2 [label="X[3] <= 0.5\nentropy = 0.745\nsamples = 521\nvalue = [[294, 227]\n[458, 63]\n[359, 162]\n[452, 69]]"] ;
1 -> 2 ;
3 [label="X[0] <= 0.5\nentropy = 0.75\nsamples = 385\nvalue = [[204, 181]\n[328, 57]\n[299, 86]\n[324, 61]]"] ;
2 -> 3 ;
4 [label="X[5] <= 0.5\nentropy = 0.768\nsamples = 259\nvalue = [[146, 113]\n[206, 53]\n[218, 41]\n[207, 52]]"] ;
3 -> 4 ;
5 [label="X[18] <= 0.5\nentropy = 0.729\nsamples = 195\nvalue = [[95, 100]\n[167, 28]\n[160, 35]\n[163, 32]]"] ;
4 -> 5 ;
6 [label="X[15] <= 0.5\nentropy = 0.707\nsamples = 99\nvalue = [[49, 50]\n[81, 18]\n[74, 25]\n[93, 6]]"] ;
5 -> 6 ;
7 [label="X[6] <= 0.5\nentropy = 0.727\nsamples = 68\nvalue = [[40, 28]\n[58, 10]\n[43, 25]\n[63, 5]]"] ;
6 -> 7 ;
8 [label="X[2] <= 0.5\nentropy = 0.695\nsamples = 46\nvalue = [[33, 13]\n[41, 5]\n[22, 24]\n[42, 4]]"] ;
7 -> 8 ;
9 [label="X[7] <= 0.5\nentropy = 0.686\nsamples = 24\nvalue = [[13, 11]\n[21, 3]\n[15, 9]\n[23, 1]]"] ;
8 -> 9 ;
10 [label="entropy = 0.391\nsamples = 11\nvalue = [[2, 9]\n[10, 1]\n[10, 1]\n[11, 0]]"] ;
9 -> 10 ;
11 [label="entropy = 0.648\nsamples = 13\nvalue = [[11, 2]\n[11, 2]\n[5, 8]\n[12, 1]]"] ;
9 -> 11 ;
12 [label="X[17] <= 0.5\nentropy = 0.589\nsamples = 22\nvalue = [[20, 2]\n[20, 2]\n[7, 15]\n[19, 3]]"] ;
8 -> 12 ;
13 [label="entropy = 0.668\nsamples = 9\nvalue = [[7, 2]\n[9, 0]\n[5, 4]\n[6, 3]]"] ;
12 -> 13 ;
14 [label="entropy = 0.31\nsamples = 13\nvalue = [[13, 0]\n[11, 2]\n[2, 11]\n[13, 0]]"] ;
12 -> 14 ;
15 [label="X[1] <= 0.5\nentropy = 0.552\nsamples = 22\nvalue = [[7, 15]\n[17, 5]\n[21, 1]\n[21, 1]]"] ;
7 -> 15 ;
16 [label="entropy = 0.0\nsamples = 10\nvalue = [[0, 10]\n[10, 0]\n[10, 0]\n[10, 0]]"] ;
15 -> 16 ;
17 [label="X[8] <= 0.5\nentropy = 0.697\nsamples = 12\nvalue = [[7, 5]\n[7, 5]\n[11, 1]\n[11, 1]]"] ;
15 -> 17 ;
18 [label="entropy = 0.496\nsamples = 9\nvalue = [[5, 4]\n[4, 5]\n[9, 0]\n[9, 0]]"] ;
17 -> 18 ;
19 [label="entropy = 0.689\nsamples = 3\nvalue = [[2, 1]\n[3, 0]\n[2, 1]\n[2, 1]]"] ;
17 -> 19 ;
20 [label="X[6] <= 0.5\nentropy = 0.475\nsamples = 31\nvalue = [[9, 22]\n[23, 8]\n[31, 0]\n[30, 1]]"] ;
6 -> 20 ;
21 [label="X[8] <= 0.5\nentropy = 0.353\nsamples = 19\nvalue = [[3, 16]\n[17, 2]\n[19, 0]\n[18, 1]]"] ;
20 -> 21 ;
22 [label="X[1] <= 0.5\nentropy = 0.196\nsamples = 13\nvalue = [[1, 12]\n[12, 1]\n[13, 0]\n[13, 0]]"] ;
21 -> 22 ;
23 [label="entropy = 0.406\nsamples = 4\nvalue = [[1, 3]\n[3, 1]\n[4, 0]\n[4, 0]]"] ;
22 -> 23 ;
24 [label="entropy = 0.0\nsamples = 9\nvalue = [[0, 9]\n[9, 0]\n[9, 0]\n[9, 0]]"] ;
22 -> 24 ;
25 [label="X[1] <= 0.5\nentropy = 0.555\nsamples = 6\nvalue = [[2, 4]\n[5, 1]\n[6, 0]\n[5, 1]]"] ;
21 -> 25 ;
26 [label="entropy = 0.406\nsamples = 4\nvalue = [[1, 3]\n[4, 0]\n[4, 0]\n[3, 1]]"] ;
25 -> 26 ;
27 [label="entropy = 0.5\nsamples = 2\nvalue = [[1, 1]\n[1, 1]\n[2, 0]\n[2, 0]]"] ;
25 -> 27 ;
28 [label="X[1] <= 0.5\nentropy = 0.5\nsamples = 12\nvalue = [[6, 6]\n[6, 6]\n[12, 0]\n[12, 0]]"] ;
20 -> 28 ;
29 [label="entropy = 0.0\nsamples = 6\nvalue = [[0, 6]\n[6, 0]\n[6, 0]\n[6, 0]]"] ;
28 -> 29 ;
30 [label="entropy = 0.0\nsamples = 6\nvalue = [[6, 0]\n[0, 6]\n[6, 0]\n[6, 0]]"] ;
28 -> 30 ;
31 [label="X[7] <= 0.5\nentropy = 0.701\nsamples = 96\nvalue = [[46, 50]\n[86, 10]\n[86, 10]\n[70, 26]]"] ;
5 -> 31 ;
32 [label="X[15] <= 0.5\nentropy = 0.753\nsamples = 62\nvalue = [[39, 23]\n[54, 8]\n[54, 8]\n[39, 23]]"] ;
31 -> 32 ;
33 [label="X[8] <= 0.5\nentropy = 0.778\nsamples = 40\nvalue = [[24, 16]\n[32, 8]\n[34, 6]\n[30, 10]]"] ;
32 -> 33 ;
34 [label="X[14] <= 0.5\nentropy = 0.742\nsamples = 29\nvalue = [[17, 12]\n[25, 4]\n[26, 3]\n[19, 10]]"] ;
33 -> 34 ;
35 [label="entropy = 0.806\nsamples = 14\nvalue = [[11, 3]\n[10, 4]\n[11, 3]\n[10, 4]]"] ;
34 -> 35 ;
36 [label="entropy = 0.485\nsamples = 15\nvalue = [[6, 9]\n[15, 0]\n[15, 0]\n[9, 6]]"] ;
34 -> 36 ;
37 [label="X[17] <= 0.5\nentropy = 0.684\nsamples = 11\nvalue = [[7, 4]\n[7, 4]\n[8, 3]\n[11, 0]]"] ;
33 -> 37 ;
38 [label="entropy = 0.485\nsamples = 5\nvalue = [[2, 3]\n[3, 2]\n[5, 0]\n[5, 0]]"] ;
37 -> 38 ;
39 [label="entropy = 0.642\nsamples = 6\nvalue = [[5, 1]\n[4, 2]\n[3, 3]\n[6, 0]]"] ;
37 -> 39 ;
40 [label="X[2] <= 0.5\nentropy = 0.579\nsamples = 22\nvalue = [[15, 7]\n[22, 0]\n[20, 2]\n[9, 13]]"] ;
32 -> 40 ;
41 [label="X[8] <= 0.5\nentropy = 0.555\nsamples = 12\nvalue = [[10, 2]\n[12, 0]\n[10, 2]\n[4, 8]]"] ;
40 -> 41 ;
42 [label="entropy = 0.272\nsamples = 8\nvalue = [[8, 0]\n[8, 0]\n[7, 1]\n[1, 7]]"] ;
41 -> 42 ;
43 [label="entropy = 0.656\nsamples = 4\nvalue = [[2, 2]\n[4, 0]\n[3, 1]\n[3, 1]]"] ;
41 -> 43 ;
44 [label="X[6] <= 0.5\nentropy = 0.5\nsamples = 10\nvalue = [[5, 5]\n[10, 0]\n[10, 0]\n[5, 5]]"] ;
40 -> 44 ;
45 [label="entropy = 0.0\nsamples = 4\nvalue = [[0, 4]\n[4, 0]\n[4, 0]\n[4, 0]]"] ;
44 -> 45 ;
46 [label="entropy = 0.325\nsamples = 6\nvalue = [[5, 1]\n[6, 0]\n[6, 0]\n[1, 5]]"] ;
44 -> 46 ;
47 [label="X[8] <= 0.5\nentropy = 0.452\nsamples = 34\nvalue = [[7, 27]\n[32, 2]\n[32, 2]\n[31, 3]]"] ;
31 -> 47 ;
48 [label="X[2] <= 0.5\nentropy = 0.342\nsamples = 27\nvalue = [[4, 23]\n[25, 2]\n[27, 0]\n[25, 2]]"] ;
47 -> 48 ;
49 [label="X[16] <= 0.5\nentropy = 0.394\nsamples = 16\nvalue = [[3, 13]\n[15, 1]\n[16, 0]\n[14, 2]]"] ;
48 -> 49 ;
50 [label="entropy = 0.342\nsamples = 11\nvalue = [[2, 9]\n[11, 0]\n[11, 0]\n[9, 2]]"] ;
49 -> 50 ;
51 [label="entropy = 0.361\nsamples = 5\nvalue = [[1, 4]\n[4, 1]\n[5, 0]\n[5, 0]]"] ;
49 -> 51 ;
52 [label="X[15] <= 0.5\nentropy = 0.22\nsamples = 11\nvalue = [[1, 10]\n[10, 1]\n[11, 0]\n[11, 0]]"] ;
48 -> 52 ;
53 [label="entropy = 0.0\nsamples = 7\nvalue = [[0, 7]\n[7, 0]\n[7, 0]\n[7, 0]]"] ;
52 -> 53 ;
54 [label="entropy = 0.406\nsamples = 4\nvalue = [[1, 3]\n[3, 1]\n[4, 0]\n[4, 0]]"] ;
52 -> 54 ;
55 [label="X[17] <= 0.5\nentropy = 0.61\nsamples = 7\nvalue = [[3, 4]\n[7, 0]\n[5, 2]\n[6, 1]]"] ;
47 -> 55 ;
56 [label="entropy = 0.0\nsamples = 3\nvalue = [[0, 3]\n[3, 0]\n[3, 0]\n[3, 0]]"] ;
55 -> 56 ;
57 [label="X[14] <= 0.5\nentropy = 0.656\nsamples = 4\nvalue = [[3, 1]\n[4, 0]\n[2, 2]\n[3, 1]]"] ;
55 -> 57 ;
58 [label="entropy = 0.5\nsamples = 2\nvalue = [[1, 1]\n[2, 0]\n[2, 0]\n[1, 1]]"] ;
57 -> 58 ;
59 [label="entropy = 0.0\nsamples = 2\nvalue = [[2, 0]\n[2, 0]\n[0, 2]\n[2, 0]]"] ;
57 -> 59 ;
60 [label="X[20] <= 0.5\nentropy = 0.76\nsamples = 64\nvalue = [[51, 13]\n[39, 25]\n[58, 6]\n[44, 20]]"] ;
4 -> 60 ;
61 [label="X[17] <= 0.5\nentropy = 0.58\nsamples = 30\nvalue = [[30, 0]\n[18, 12]\n[28, 2]\n[14, 16]]"] ;
60 -> 61 ;
62 [label="X[8] <= 0.5\nentropy = 0.405\nsamples = 20\nvalue = [[20, 0]\n[17, 3]\n[19, 1]\n[4, 16]]"] ;
61 -> 62 ;
63 [label="X[11] <= 0.5\nentropy = 0.196\nsamples = 13\nvalue = [[13, 0]\n[13, 0]\n[12, 1]\n[1, 12]]"] ;
62 -> 63 ;
64 [label="entropy = 0.0\nsamples = 11\nvalue = [[11, 0]\n[11, 0]\n[11, 0]\n[0, 11]]"] ;
63 -> 64 ;
65 [label="X[16] <= 0.5\nentropy = 0.5\nsamples = 2\nvalue = [[2, 0]\n[2, 0]\n[1, 1]\n[1, 1]]"] ;
63 -> 65 ;
66 [label="entropy = 0.0\nsamples = 1\nvalue = [[1, 0]\n[1, 0]\n[0, 1]\n[1, 0]]"] ;
65 -> 66 ;
67 [label="entropy = 0.0\nsamples = 1\nvalue = [[1, 0]\n[1, 0]\n[1, 0]\n[0, 1]]"] ;
65 -> 67 ;
68 [label="X[15] <= 0.5\nentropy = 0.493\nsamples = 7\nvalue = [[7, 0]\n[4, 3]\n[7, 0]\n[3, 4]]"] ;
62 -> 68 ;
69 [label="entropy = 0.0\nsamples = 3\nvalue = [[3, 0]\n[0, 3]\n[3, 0]\n[3, 0]]"] ;
68 -> 69 ;
70 [label="entropy = 0.0\nsamples = 4\nvalue = [[4, 0]\n[4, 0]\n[4, 0]\n[0, 4]]"] ;
68 -> 70 ;
71 [label="X[8] <= 0.5\nentropy = 0.234\nsamples = 10\nvalue = [[10, 0]\n[1, 9]\n[9, 1]\n[10, 0]]"] ;
61 -> 71 ;
72 [label="entropy = 0.0\nsamples = 7\nvalue = [[7, 0]\n[0, 7]\n[7, 0]\n[7, 0]]"] ;
71 -> 72 ;
73 [label="X[14] <= 0.5\nentropy = 0.459\nsamples = 3\nvalue = [[3, 0]\n[1, 2]\n[2, 1]\n[3, 0]]"] ;
71 -> 73 ;
74 [label="entropy = 0.0\nsamples = 2\nvalue = [[2, 0]\n[0, 2]\n[2, 0]\n[2, 0]]"] ;
73 -> 74 ;
75 [label="entropy = 0.0\nsamples = 1\nvalue = [[1, 0]\n[1, 0]\n[0, 1]\n[1, 0]]"] ;
73 -> 75 ;
76 [label="X[15] <= 0.5\nentropy = 0.741\nsamples = 34\nvalue = [[21, 13]\n[21, 13]\n[30, 4]\n[30, 4]]"] ;
60 -> 76 ;
77 [label="X[16] <= 0.5\nentropy = 0.653\nsamples = 22\nvalue = [[9, 13]\n[18, 4]\n[21, 1]\n[18, 4]]"] ;
76 -> 77 ;
78 [label="X[8] <= 0.5\nentropy = 0.443\nsamples = 9\nvalue = [[2, 7]\n[9, 0]\n[8, 1]\n[8, 1]]"] ;
77 -> 78 ;
79 [label="X[11] <= 0.5\nentropy = 0.296\nsamples = 7\nvalue = [[1, 6]\n[7, 0]\n[7, 0]\n[6, 1]]"] ;
78 -> 79 ;
80 [label="entropy = 0.0\nsamples = 4\nvalue = [[0, 4]\n[4, 0]\n[4, 0]\n[4, 0]]"] ;
79 -> 80 ;
81 [label="entropy = 0.459\nsamples = 3\nvalue = [[1, 2]\n[3, 0]\n[3, 0]\n[2, 1]]"] ;
79 -> 81 ;
82 [label="X[13] <= 0.5\nentropy = 0.5\nsamples = 2\nvalue = [[1, 1]\n[2, 0]\n[1, 1]\n[2, 0]]"] ;
78 -> 82 ;
83 [label="entropy = 0.0\nsamples = 1\nvalue = [[1, 0]\n[1, 0]\n[0, 1]\n[1, 0]]"] ;
82 -> 83 ;
84 [label="entropy = 0.0\nsamples = 1\nvalue = [[0, 1]\n[1, 0]\n[1, 0]\n[1, 0]]"] ;
82 -> 84 ;
85 [label="X[8] <= 0.5\nentropy = 0.666\nsamples = 13\nvalue = [[7, 6]\n[9, 4]\n[13, 0]\n[10, 3]]"] ;
77 -> 85 ;
86 [label="X[14] <= 0.5\nentropy = 0.668\nsamples = 9\nvalue = [[6, 3]\n[5, 4]\n[9, 0]\n[7, 2]]"] ;
85 -> 86 ;
87 [label="entropy = 0.485\nsamples = 5\nvalue = [[2, 3]\n[3, 2]\n[5, 0]\n[5, 0]]"] ;
86 -> 87 ;
88 [label="entropy = 0.5\nsamples = 4\nvalue = [[4, 0]\n[2, 2]\n[4, 0]\n[2, 2]]"] ;
86 -> 88 ;
89 [label="X[13] <= 0.5\nentropy = 0.406\nsamples = 4\nvalue = [[1, 3]\n[4, 0]\n[4, 0]\n[3, 1]]"] ;
85 -> 89 ;
90 [label="entropy = 0.0\nsamples = 2\nvalue = [[0, 2]\n[2, 0]\n[2, 0]\n[2, 0]]"] ;
89 -> 90 ;
91 [label="entropy = 0.5\nsamples = 2\nvalue = [[1, 1]\n[2, 0]\n[2, 0]\n[1, 1]]"] ;
89 -> 91 ;
92 [label="X[2] <= 0.5\nentropy = 0.406\nsamples = 12\nvalue = [[12, 0]\n[3, 9]\n[9, 3]\n[12, 0]]"] ;
76 -> 92 ;
93 [label="X[13] <= 0.5\nentropy = 0.5\nsamples = 6\nvalue = [[6, 0]\n[3, 3]\n[3, 3]\n[6, 0]]"] ;
92 -> 93 ;
94 [label="X[11] <= 0.5\nentropy = 0.406\nsamples = 4\nvalue = [[4, 0]\n[3, 1]\n[1, 3]\n[4, 0]]"] ;
93 -> 94 ;
95 [label="entropy = 0.0\nsamples = 3\nvalue = [[3, 0]\n[3, 0]\n[0, 3]\n[3, 0]]"] ;
94 -> 95 ;
96 [label="entropy = 0.0\nsamples = 1\nvalue = [[1, 0]\n[0, 1]\n[1, 0]\n[1, 0]]"] ;
94 -> 96 ;
97 [label="entropy = 0.0\nsamples = 2\nvalue = [[2, 0]\n[0, 2]\n[2, 0]\n[2, 0]]"] ;
93 -> 97 ;
98 [label="entropy = 0.0\nsamples = 6\nvalue = [[6, 0]\n[0, 6]\n[6, 0]\n[6, 0]]"] ;
92 -> 98 ;
99 [label="X[7] <= 0.5\nentropy = 0.628\nsamples = 126\nvalue = [[58, 68]\n[122, 4]\n[81, 45]\n[117, 9]]"] ;
3 -> 99 ;
100 [label="X[17] <= 0.5\nentropy = 0.559\nsamples = 99\nvalue = [[32, 67]\n[96, 3]\n[77, 22]\n[92, 7]]"] ;
99 -> 100 ;
101 [label="X[11] <= 0.5\nentropy = 0.476\nsamples = 62\nvalue = [[14, 48]\n[59, 3]\n[55, 7]\n[58, 4]]"] ;
100 -> 101 ;
102 [label="X[20] <= 0.5\nentropy = 0.533\nsamples = 43\nvalue = [[12, 31]\n[41, 2]\n[36, 7]\n[40, 3]]"] ;
101 -> 102 ;
103 [label="X[8] <= 0.5\nentropy = 0.487\nsamples = 19\nvalue = [[5, 14]\n[19, 0]\n[17, 2]\n[16, 3]]"] ;
102 -> 103 ;
104 [label="X[14] <= 0.5\nentropy = 0.59\nsamples = 13\nvalue = [[5, 8]\n[13, 0]\n[11, 2]\n[10, 3]]"] ;
103 -> 104 ;
105 [label="entropy = 0.325\nsamples = 6\nvalue = [[1, 5]\n[6, 0]\n[6, 0]\n[5, 1]]"] ;
104 -> 105 ;
106 [label="entropy = 0.678\nsamples = 7\nvalue = [[4, 3]\n[7, 0]\n[5, 2]\n[5, 2]]"] ;
104 -> 106 ;
107 [label="entropy = 0.0\nsamples = 6\nvalue = [[0, 6]\n[6, 0]\n[6, 0]\n[6, 0]]"] ;
103 -> 107 ;
108 [label="X[16] <= 0.5\nentropy = 0.506\nsamples = 24\nvalue = [[7, 17]\n[22, 2]\n[19, 5]\n[24, 0]]"] ;
102 -> 108 ;
109 [label="X[10] <= 0.5\nentropy = 0.207\nsamples = 12\nvalue = [[1, 11]\n[11, 1]\n[12, 0]\n[12, 0]]"] ;
108 -> 109 ;
110 [label="entropy = 0.0\nsamples = 9\nvalue = [[0, 9]\n[9, 0]\n[9, 0]\n[9, 0]]"] ;
109 -> 110 ;
111 [label="entropy = 0.459\nsamples = 3\nvalue = [[1, 2]\n[2, 1]\n[3, 0]\n[3, 0]]"] ;
109 -> 111 ;
112 [label="X[8] <= 0.5\nentropy = 0.598\nsamples = 12\nvalue = [[6, 6]\n[11, 1]\n[7, 5]\n[12, 0]]"] ;
108 -> 112 ;
113 [label="entropy = 0.406\nsamples = 8\nvalue = [[2, 6]\n[8, 0]\n[6, 2]\n[8, 0]]"] ;
112 -> 113 ;
114 [label="entropy = 0.406\nsamples = 4\nvalue = [[4, 0]\n[3, 1]\n[1, 3]\n[4, 0]]"] ;
112 -> 114 ;
115 [label="X[18] <= 0.5\nentropy = 0.27\nsamples = 19\nvalue = [[2, 17]\n[18, 1]\n[19, 0]\n[18, 1]]"] ;
101 -> 115 ;
116 [label="X[6] <= 0.5\nentropy = 0.415\nsamples = 10\nvalue = [[2, 8]\n[9, 1]\n[10, 0]\n[9, 1]]"] ;
115 -> 116 ;
117 [label="X[16] <= 0.5\nentropy = 0.296\nsamples = 7\nvalue = [[1, 6]\n[6, 1]\n[7, 0]\n[7, 0]]"] ;
116 -> 117 ;
118 [label="entropy = 0.406\nsamples = 4\nvalue = [[1, 3]\n[3, 1]\n[4, 0]\n[4, 0]]"] ;
117 -> 118 ;
119 [label="entropy = 0.0\nsamples = 3\nvalue = [[0, 3]\n[3, 0]\n[3, 0]\n[3, 0]]"] ;
117 -> 119 ;
120 [label="X[16] <= 0.5\nentropy = 0.459\nsamples = 3\nvalue = [[1, 2]\n[3, 0]\n[3, 0]\n[2, 1]]"] ;
116 -> 120 ;
121 [label="entropy = 0.0\nsamples = 2\nvalue = [[0, 2]\n[2, 0]\n[2, 0]\n[2, 0]]"] ;
120 -> 121 ;
122 [label="entropy = 0.0\nsamples = 1\nvalue = [[1, 0]\n[1, 0]\n[1, 0]\n[0, 1]]"] ;
120 -> 122 ;
123 [label="entropy = 0.0\nsamples = 9\nvalue = [[0, 9]\n[9, 0]\n[9, 0]\n[9, 0]]"] ;
115 -> 123 ;
124 [label="X[18] <= 0.5\nentropy = 0.595\nsamples = 37\nvalue = [[18, 19]\n[37, 0]\n[22, 15]\n[34, 3]]"] ;
100 -> 124 ;
125 [label="X[10] <= 0.5\nentropy = 0.547\nsamples = 16\nvalue = [[11, 5]\n[16, 0]\n[6, 10]\n[15, 1]]"] ;
124 -> 125 ;
126 [label="X[4] <= 0.5\nentropy = 0.497\nsamples = 11\nvalue = [[6, 5]\n[11, 0]\n[5, 6]\n[11, 0]]"] ;
125 -> 126 ;
127 [label="X[13] <= 0.5\nentropy = 0.493\nsamples = 7\nvalue = [[3, 4]\n[7, 0]\n[4, 3]\n[7, 0]]"] ;
126 -> 127 ;
128 [label="entropy = 0.406\nsamples = 4\nvalue = [[1, 3]\n[4, 0]\n[3, 1]\n[4, 0]]"] ;
127 -> 128 ;
129 [label="entropy = 0.459\nsamples = 3\nvalue = [[2, 1]\n[3, 0]\n[1, 2]\n[3, 0]]"] ;
127 -> 129 ;
130 [label="X[13] <= 0.5\nentropy = 0.406\nsamples = 4\nvalue = [[3, 1]\n[4, 0]\n[1, 3]\n[4, 0]]"] ;
126 -> 130 ;
131 [label="entropy = 0.0\nsamples = 3\nvalue = [[3, 0]\n[3, 0]\n[0, 3]\n[3, 0]]"] ;
130 -> 131 ;
132 [label="entropy = 0.0\nsamples = 1\nvalue = [[0, 1]\n[1, 0]\n[1, 0]\n[1, 0]]"] ;
130 -> 132 ;
133 [label="X[13] <= 0.5\nentropy = 0.361\nsamples = 5\nvalue = [[5, 0]\n[5, 0]\n[1, 4]\n[4, 1]]"] ;
125 -> 133 ;
134 [label="X[5] <= 0.5\nentropy = 0.5\nsamples = 2\nvalue = [[2, 0]\n[2, 0]\n[1, 1]\n[1, 1]]"] ;
133 -> 134 ;
135 [label="entropy = 0.0\nsamples = 1\nvalue = [[1, 0]\n[1, 0]\n[0, 1]\n[1, 0]]"] ;
134 -> 135 ;
136 [label="entropy = 0.0\nsamples = 1\nvalue = [[1, 0]\n[1, 0]\n[1, 0]\n[0, 1]]"] ;
134 -> 136 ;
137 [label="entropy = 0.0\nsamples = 3\nvalue = [[3, 0]\n[3, 0]\n[0, 3]\n[3, 0]]"] ;
133 -> 137 ;
138 [label="X[8] <= 0.5\nentropy = 0.541\nsamples = 21\nvalue = [[7, 14]\n[21, 0]\n[16, 5]\n[19, 2]]"] ;
124 -> 138 ;
139 [label="X[14] <= 0.5\nentropy = 0.41\nsamples = 15\nvalue = [[3, 12]\n[15, 0]\n[14, 1]\n[13, 2]]"] ;
138 -> 139 ;
140 [label="entropy = 0.0\nsamples = 6\nvalue = [[0, 6]\n[6, 0]\n[6, 0]\n[6, 0]]"] ;
139 -> 140 ;
141 [label="X[11] <= 0.5\nentropy = 0.546\nsamples = 9\nvalue = [[3, 6]\n[9, 0]\n[8, 1]\n[7, 2]]"] ;
139 -> 141 ;
142 [label="entropy = 0.325\nsamples = 6\nvalue = [[1, 5]\n[6, 0]\n[5, 1]\n[6, 0]]"] ;
141 -> 142 ;
143 [label="entropy = 0.459\nsamples = 3\nvalue = [[2, 1]\n[3, 0]\n[3, 0]\n[1, 2]]"] ;
141 -> 143 ;
144 [label="X[14] <= 0.5\nentropy = 0.459\nsamples = 6\nvalue = [[4, 2]\n[6, 0]\n[2, 4]\n[6, 0]]"] ;
138 -> 144 ;
145 [label="X[6] <= 0.5\nentropy = 0.459\nsamples = 3\nvalue = [[1, 2]\n[3, 0]\n[2, 1]\n[3, 0]]"] ;
144 -> 145 ;
146 [label="entropy = 0.0\nsamples = 2\nvalue = [[0, 2]\n[2, 0]\n[2, 0]\n[2, 0]]"] ;
145 -> 146 ;
147 [label="entropy = 0.0\nsamples = 1\nvalue = [[1, 0]\n[1, 0]\n[0, 1]\n[1, 0]]"] ;
145 -> 147 ;
148 [label="entropy = 0.0\nsamples = 3\nvalue = [[3, 0]\n[3, 0]\n[0, 3]\n[3, 0]]"] ;
144 -> 148 ;
149 [label="X[10] <= 0.5\nentropy = 0.361\nsamples = 27\nvalue = [[26, 1]\n[26, 1]\n[4, 23]\n[25, 2]]"] ;
99 -> 149 ;
150 [label="X[17] <= 0.5\nentropy = 0.129\nsamples = 23\nvalue = [[23, 0]\n[23, 0]\n[1, 22]\n[22, 1]]"] ;
149 -> 150 ;
151 [label="entropy = 0.0\nsamples = 15\nvalue = [[15, 0]\n[15, 0]\n[0, 15]\n[15, 0]]"] ;
150 -> 151 ;
152 [label="X[8] <= 0.5\nentropy = 0.272\nsamples = 8\nvalue = [[8, 0]\n[8, 0]\n[1, 7]\n[7, 1]]"] ;
150 -> 152 ;
153 [label="entropy = 0.0\nsamples = 5\nvalue = [[5, 0]\n[5, 0]\n[0, 5]\n[5, 0]]"] ;
152 -> 153 ;
154 [label="X[14] <= 0.5\nentropy = 0.459\nsamples = 3\nvalue = [[3, 0]\n[3, 0]\n[1, 2]\n[2, 1]]"] ;
152 -> 154 ;
155 [label="entropy = 0.0\nsamples = 1\nvalue = [[1, 0]\n[1, 0]\n[0, 1]\n[1, 0]]"] ;
154 -> 155 ;
156 [label="X[18] <= 0.5\nentropy = 0.5\nsamples = 2\nvalue = [[2, 0]\n[2, 0]\n[1, 1]\n[1, 1]]"] ;
154 -> 156 ;
157 [label="entropy = 0.0\nsamples = 1\nvalue = [[1, 0]\n[1, 0]\n[0, 1]\n[1, 0]]"] ;
156 -> 157 ;
158 [label="entropy = 0.0\nsamples = 1\nvalue = [[1, 0]\n[1, 0]\n[1, 0]\n[0, 1]]"] ;
156 -> 158 ;
159 [label="X[17] <= 0.5\nentropy = 0.811\nsamples = 4\nvalue = [[3, 1]\n[3, 1]\n[3, 1]\n[3, 1]]"] ;
149 -> 159 ;
160 [label="X[13] <= 0.5\nentropy = 0.5\nsamples = 2\nvalue = [[2, 0]\n[1, 1]\n[1, 1]\n[2, 0]]"] ;
159 -> 160 ;
161 [label="entropy = 0.0\nsamples = 1\nvalue = [[1, 0]\n[0, 1]\n[1, 0]\n[1, 0]]"] ;
160 -> 161 ;
162 [label="entropy = 0.0\nsamples = 1\nvalue = [[1, 0]\n[1, 0]\n[0, 1]\n[1, 0]]"] ;
160 -> 162 ;
163 [label="X[20] <= 0.5\nentropy = 0.5\nsamples = 2\nvalue = [[1, 1]\n[2, 0]\n[2, 0]\n[1, 1]]"] ;
159 -> 163 ;
164 [label="entropy = 0.0\nsamples = 1\nvalue = [[1, 0]\n[1, 0]\n[1, 0]\n[0, 1]]"] ;
163 -> 164 ;
165 [label="entropy = 0.0\nsamples = 1\nvalue = [[0, 1]\n[1, 0]\n[1, 0]\n[1, 0]]"] ;
163 -> 165 ;
166 [label="X[6] <= 0.5\nentropy = 0.624\nsamples = 136\nvalue = [[90, 46]\n[130, 6]\n[60, 76]\n[128, 8]]"] ;
2 -> 166 ;
167 [label="X[5] <= 0.5\nentropy = 0.552\nsamples = 101\nvalue = [[76, 25]\n[100, 1]\n[34, 67]\n[93, 8]]"] ;
166 -> 167 ;
168 [label="X[20] <= 0.5\nentropy = 0.399\nsamples = 69\nvalue = [[63, 6]\n[69, 0]\n[13, 56]\n[62, 7]]"] ;
167 -> 168 ;
169 [label="X[11] <= 0.5\nentropy = 0.461\nsamples = 32\nvalue = [[26, 6]\n[32, 0]\n[8, 24]\n[30, 2]]"] ;
168 -> 169 ;
170 [label="X[8] <= 0.5\nentropy = 0.378\nsamples = 23\nvalue = [[18, 5]\n[23, 0]\n[5, 18]\n[23, 0]]"] ;
169 -> 170 ;
171 [label="X[17] <= 0.5\nentropy = 0.283\nsamples = 15\nvalue = [[13, 2]\n[15, 0]\n[2, 13]\n[15, 0]]"] ;
170 -> 171 ;
172 [label="entropy = 0.0\nsamples = 9\nvalue = [[9, 0]\n[9, 0]\n[0, 9]\n[9, 0]]"] ;
171 -> 172 ;
173 [label="X[14] <= 0.5\nentropy = 0.459\nsamples = 6\nvalue = [[4, 2]\n[6, 0]\n[2, 4]\n[6, 0]]"] ;
171 -> 173 ;
174 [label="entropy = 0.0\nsamples = 2\nvalue = [[2, 0]\n[2, 0]\n[0, 2]\n[2, 0]]"] ;
173 -> 174 ;
175 [label="entropy = 0.5\nsamples = 4\nvalue = [[2, 2]\n[4, 0]\n[2, 2]\n[4, 0]]"] ;
173 -> 175 ;
176 [label="X[17] <= 0.5\nentropy = 0.477\nsamples = 8\nvalue = [[5, 3]\n[8, 0]\n[3, 5]\n[8, 0]]"] ;
170 -> 176 ;
177 [label="X[7] <= 0.5\nentropy = 0.5\nsamples = 6\nvalue = [[3, 3]\n[6, 0]\n[3, 3]\n[6, 0]]"] ;
176 -> 177 ;
178 [label="entropy = 0.459\nsamples = 3\nvalue = [[2, 1]\n[3, 0]\n[1, 2]\n[3, 0]]"] ;
177 -> 178 ;
179 [label="entropy = 0.459\nsamples = 3\nvalue = [[1, 2]\n[3, 0]\n[2, 1]\n[3, 0]]"] ;
177 -> 179 ;
180 [label="entropy = 0.0\nsamples = 2\nvalue = [[2, 0]\n[2, 0]\n[0, 2]\n[2, 0]]"] ;
176 -> 180 ;
181 [label="X[4] <= 0.5\nentropy = 0.546\nsamples = 9\nvalue = [[8, 1]\n[9, 0]\n[3, 6]\n[7, 2]]"] ;
169 -> 181 ;
182 [label="X[16] <= 0.5\nentropy = 0.689\nsamples = 3\nvalue = [[2, 1]\n[3, 0]\n[2, 1]\n[2, 1]]"] ;
181 -> 182 ;
183 [label="X[13] <= 0.5\nentropy = 0.5\nsamples = 2\nvalue = [[1, 1]\n[2, 0]\n[1, 1]\n[2, 0]]"] ;
182 -> 183 ;
184 [label="entropy = 0.0\nsamples = 1\nvalue = [[1, 0]\n[1, 0]\n[0, 1]\n[1, 0]]"] ;
183 -> 184 ;
185 [label="entropy = 0.0\nsamples = 1\nvalue = [[0, 1]\n[1, 0]\n[1, 0]\n[1, 0]]"] ;
183 -> 185 ;
186 [label="entropy = 0.0\nsamples = 1\nvalue = [[1, 0]\n[1, 0]\n[1, 0]\n[0, 1]]"] ;
182 -> 186 ;
187 [label="X[17] <= 0.5\nentropy = 0.325\nsamples = 6\nvalue = [[6, 0]\n[6, 0]\n[1, 5]\n[5, 1]]"] ;
181 -> 187 ;
188 [label="entropy = 0.0\nsamples = 4\nvalue = [[4, 0]\n[4, 0]\n[0, 4]\n[4, 0]]"] ;
187 -> 188 ;
189 [label="X[14] <= 0.5\nentropy = 0.5\nsamples = 2\nvalue = [[2, 0]\n[2, 0]\n[1, 1]\n[1, 1]]"] ;
187 -> 189 ;
190 [label="entropy = 0.0\nsamples = 1\nvalue = [[1, 0]\n[1, 0]\n[0, 1]\n[1, 0]]"] ;
189 -> 190 ;
191 [label="entropy = 0.0\nsamples = 1\nvalue = [[1, 0]\n[1, 0]\n[1, 0]\n[0, 1]]"] ;
189 -> 191 ;
192 [label="X[10] <= 0.5\nentropy = 0.286\nsamples = 37\nvalue = [[37, 0]\n[37, 0]\n[5, 32]\n[32, 5]]"] ;
168 -> 192 ;
193 [label="X[14] <= 0.5\nentropy = 0.353\nsamples = 26\nvalue = [[26, 0]\n[26, 0]\n[5, 21]\n[21, 5]]"] ;
192 -> 193 ;
194 [label="X[11] <= 0.5\nentropy = 0.272\nsamples = 16\nvalue = [[16, 0]\n[16, 0]\n[2, 14]\n[14, 2]]"] ;
193 -> 194 ;
195 [label="X[15] <= 0.5\nentropy = 0.361\nsamples = 10\nvalue = [[10, 0]\n[10, 0]\n[2, 8]\n[8, 2]]"] ;
194 -> 195 ;
196 [label="entropy = 0.432\nsamples = 7\nvalue = [[7, 0]\n[7, 0]\n[2, 5]\n[5, 2]]"] ;
195 -> 196 ;
197 [label="entropy = 0.0\nsamples = 3\nvalue = [[3, 0]\n[3, 0]\n[0, 3]\n[3, 0]]"] ;
195 -> 197 ;
198 [label="entropy = 0.0\nsamples = 6\nvalue = [[6, 0]\n[6, 0]\n[0, 6]\n[6, 0]]"] ;
194 -> 198 ;
199 [label="X[4] <= 0.5\nentropy = 0.441\nsamples = 10\nvalue = [[10, 0]\n[10, 0]\n[3, 7]\n[7, 3]]"] ;
193 -> 199 ;
200 [label="X[8] <= 0.5\nentropy = 0.361\nsamples = 5\nvalue = [[5, 0]\n[5, 0]\n[1, 4]\n[4, 1]]"] ;
199 -> 200 ;
201 [label="entropy = 0.0\nsamples = 3\nvalue = [[3, 0]\n[3, 0]\n[0, 3]\n[3, 0]]"] ;
200 -> 201 ;
202 [label="entropy = 0.5\nsamples = 2\nvalue = [[2, 0]\n[2, 0]\n[1, 1]\n[1, 1]]"] ;
200 -> 202 ;
203 [label="X[11] <= 0.5\nentropy = 0.485\nsamples = 5\nvalue = [[5, 0]\n[5, 0]\n[2, 3]\n[3, 2]]"] ;
199 -> 203 ;
204 [label="entropy = 0.406\nsamples = 4\nvalue = [[4, 0]\n[4, 0]\n[1, 3]\n[3, 1]]"] ;
203 -> 204 ;
205 [label="entropy = 0.0\nsamples = 1\nvalue = [[1, 0]\n[1, 0]\n[1, 0]\n[0, 1]]"] ;
203 -> 205 ;
206 [label="entropy = 0.0\nsamples = 11\nvalue = [[11, 0]\n[11, 0]\n[0, 11]\n[11, 0]]"] ;
192 -> 206 ;
207 [label="X[17] <= 0.5\nentropy = 0.576\nsamples = 32\nvalue = [[13, 19]\n[31, 1]\n[21, 11]\n[31, 1]]"] ;
167 -> 207 ;
208 [label="X[14] <= 0.5\nentropy = 0.416\nsamples = 19\nvalue = [[5, 14]\n[19, 0]\n[14, 5]\n[19, 0]]"] ;
207 -> 208 ;
209 [label="X[9] <= 0.5\nentropy = 0.477\nsamples = 8\nvalue = [[3, 5]\n[8, 0]\n[5, 3]\n[8, 0]]"] ;
208 -> 209 ;
210 [label="X[20] <= 0.5\nentropy = 0.493\nsamples = 7\nvalue = [[3, 4]\n[7, 0]\n[4, 3]\n[7, 0]]"] ;
209 -> 210 ;
211 [label="X[16] <= 0.5\nentropy = 0.459\nsamples = 3\nvalue = [[2, 1]\n[3, 0]\n[1, 2]\n[3, 0]]"] ;
210 -> 211 ;
212 [label="entropy = 0.0\nsamples = 2\nvalue = [[2, 0]\n[2, 0]\n[0, 2]\n[2, 0]]"] ;
211 -> 212 ;
213 [label="entropy = 0.0\nsamples = 1\nvalue = [[0, 1]\n[1, 0]\n[1, 0]\n[1, 0]]"] ;
211 -> 213 ;
214 [label="X[16] <= 0.5\nentropy = 0.406\nsamples = 4\nvalue = [[1, 3]\n[4, 0]\n[3, 1]\n[4, 0]]"] ;
210 -> 214 ;
215 [label="entropy = 0.0\nsamples = 2\nvalue = [[0, 2]\n[2, 0]\n[2, 0]\n[2, 0]]"] ;
214 -> 215 ;
216 [label="entropy = 0.5\nsamples = 2\nvalue = [[1, 1]\n[2, 0]\n[1, 1]\n[2, 0]]"] ;
214 -> 216 ;
217 [label="entropy = 0.0\nsamples = 1\nvalue = [[0, 1]\n[1, 0]\n[1, 0]\n[1, 0]]"] ;
209 -> 217 ;
218 [label="X[16] <= 0.5\nentropy = 0.342\nsamples = 11\nvalue = [[2, 9]\n[11, 0]\n[9, 2]\n[11, 0]]"] ;
208 -> 218 ;
219 [label="entropy = 0.0\nsamples = 6\nvalue = [[0, 6]\n[6, 0]\n[6, 0]\n[6, 0]]"] ;
218 -> 219 ;
220 [label="X[10] <= 0.5\nentropy = 0.485\nsamples = 5\nvalue = [[2, 3]\n[5, 0]\n[3, 2]\n[5, 0]]"] ;
218 -> 220 ;
221 [label="X[11] <= 0.5\nentropy = 0.5\nsamples = 4\nvalue = [[2, 2]\n[4, 0]\n[2, 2]\n[4, 0]]"] ;
220 -> 221 ;
222 [label="entropy = 0.5\nsamples = 2\nvalue = [[1, 1]\n[2, 0]\n[1, 1]\n[2, 0]]"] ;
221 -> 222 ;
223 [label="entropy = 0.5\nsamples = 2\nvalue = [[1, 1]\n[2, 0]\n[1, 1]\n[2, 0]]"] ;
221 -> 223 ;
224 [label="entropy = 0.0\nsamples = 1\nvalue = [[0, 1]\n[1, 0]\n[1, 0]\n[1, 0]]"] ;
220 -> 224 ;
225 [label="X[10] <= 0.5\nentropy = 0.685\nsamples = 13\nvalue = [[8, 5]\n[12, 1]\n[7, 6]\n[12, 1]]"] ;
207 -> 225 ;
226 [label="X[13] <= 0.5\nentropy = 0.5\nsamples = 10\nvalue = [[5, 5]\n[10, 0]\n[5, 5]\n[10, 0]]"] ;
225 -> 226 ;
227 [label="X[8] <= 0.5\nentropy = 0.459\nsamples = 6\nvalue = [[4, 2]\n[6, 0]\n[2, 4]\n[6, 0]]"] ;
226 -> 227 ;
228 [label="X[11] <= 0.5\nentropy = 0.5\nsamples = 4\nvalue = [[2, 2]\n[4, 0]\n[2, 2]\n[4, 0]]"] ;
227 -> 228 ;
229 [label="entropy = 0.5\nsamples = 2\nvalue = [[1, 1]\n[2, 0]\n[1, 1]\n[2, 0]]"] ;
228 -> 229 ;
230 [label="entropy = 0.5\nsamples = 2\nvalue = [[1, 1]\n[2, 0]\n[1, 1]\n[2, 0]]"] ;
228 -> 230 ;
231 [label="entropy = 0.0\nsamples = 2\nvalue = [[2, 0]\n[2, 0]\n[0, 2]\n[2, 0]]"] ;
227 -> 231 ;
232 [label="X[18] <= 0.5\nentropy = 0.406\nsamples = 4\nvalue = [[1, 3]\n[4, 0]\n[3, 1]\n[4, 0]]"] ;
226 -> 232 ;
233 [label="entropy = 0.0\nsamples = 1\nvalue = [[1, 0]\n[1, 0]\n[0, 1]\n[1, 0]]"] ;
232 -> 233 ;
234 [label="entropy = 0.0\nsamples = 3\nvalue = [[0, 3]\n[3, 0]\n[3, 0]\n[3, 0]]"] ;
232 -> 234 ;
235 [label="X[14] <= 0.5\nentropy = 0.689\nsamples = 3\nvalue = [[3, 0]\n[2, 1]\n[2, 1]\n[2, 1]]"] ;
225 -> 235 ;
236 [label="X[18] <= 0.5\nentropy = 0.5\nsamples = 2\nvalue = [[2, 0]\n[1, 1]\n[2, 0]\n[1, 1]]"] ;
235 -> 236 ;
237 [label="entropy = 0.0\nsamples = 1\nvalue = [[1, 0]\n[1, 0]\n[1, 0]\n[0, 1]]"] ;
236 -> 237 ;
238 [label="entropy = 0.0\nsamples = 1\nvalue = [[1, 0]\n[0, 1]\n[1, 0]\n[1, 0]]"] ;
236 -> 238 ;
239 [label="entropy = 0.0\nsamples = 1\nvalue = [[1, 0]\n[1, 0]\n[0, 1]\n[1, 0]]"] ;
235 -> 239 ;
240 [label="X[17] <= 0.5\nentropy = 0.596\nsamples = 35\nvalue = [[14, 21]\n[30, 5]\n[26, 9]\n[35, 0]]"] ;
166 -> 240 ;
241 [label="X[15] <= 0.5\nentropy = 0.471\nsamples = 22\nvalue = [[6, 16]\n[17, 5]\n[21, 1]\n[22, 0]]"] ;
240 -> 241 ;
242 [label="X[8] <= 0.5\nentropy = 0.578\nsamples = 12\nvalue = [[5, 7]\n[8, 4]\n[11, 1]\n[12, 0]]"] ;
241 -> 242 ;
243 [label="X[18] <= 0.5\nentropy = 0.496\nsamples = 9\nvalue = [[4, 5]\n[5, 4]\n[9, 0]\n[9, 0]]"] ;
242 -> 243 ;
244 [label="X[14] <= 0.5\nentropy = 0.361\nsamples = 5\nvalue = [[1, 4]\n[4, 1]\n[5, 0]\n[5, 0]]"] ;
243 -> 244 ;
245 [label="entropy = 0.0\nsamples = 3\nvalue = [[0, 3]\n[3, 0]\n[3, 0]\n[3, 0]]"] ;
244 -> 245 ;
246 [label="X[9] <= 0.5\nentropy = 0.5\nsamples = 2\nvalue = [[1, 1]\n[1, 1]\n[2, 0]\n[2, 0]]"] ;
244 -> 246 ;
247 [label="entropy = 0.0\nsamples = 1\nvalue = [[0, 1]\n[1, 0]\n[1, 0]\n[1, 0]]"] ;
246 -> 247 ;
248 [label="entropy = 0.0\nsamples = 1\nvalue = [[1, 0]\n[0, 1]\n[1, 0]\n[1, 0]]"] ;
246 -> 248 ;
249 [label="X[10] <= 0.5\nentropy = 0.406\nsamples = 4\nvalue = [[3, 1]\n[1, 3]\n[4, 0]\n[4, 0]]"] ;
243 -> 249 ;
250 [label="entropy = 0.0\nsamples = 2\nvalue = [[2, 0]\n[0, 2]\n[2, 0]\n[2, 0]]"] ;
249 -> 250 ;
251 [label="X[13] <= 0.5\nentropy = 0.5\nsamples = 2\nvalue = [[1, 1]\n[1, 1]\n[2, 0]\n[2, 0]]"] ;
249 -> 251 ;
252 [label="entropy = 0.0\nsamples = 1\nvalue = [[0, 1]\n[1, 0]\n[1, 0]\n[1, 0]]"] ;
251 -> 252 ;
253 [label="entropy = 0.0\nsamples = 1\nvalue = [[1, 0]\n[0, 1]\n[1, 0]\n[1, 0]]"] ;
251 -> 253 ;
254 [label="X[18] <= 0.5\nentropy = 0.459\nsamples = 3\nvalue = [[1, 2]\n[3, 0]\n[2, 1]\n[3, 0]]"] ;
242 -> 254 ;
255 [label="entropy = 0.0\nsamples = 1\nvalue = [[1, 0]\n[1, 0]\n[0, 1]\n[1, 0]]"] ;
254 -> 255 ;
256 [label="entropy = 0.0\nsamples = 2\nvalue = [[0, 2]\n[2, 0]\n[2, 0]\n[2, 0]]"] ;
254 -> 256 ;
257 [label="X[10] <= 0.5\nentropy = 0.234\nsamples = 10\nvalue = [[1, 9]\n[9, 1]\n[10, 0]\n[10, 0]]"] ;
241 -> 257 ;
258 [label="entropy = 0.0\nsamples = 7\nvalue = [[0, 7]\n[7, 0]\n[7, 0]\n[7, 0]]"] ;
257 -> 258 ;
259 [label="X[20] <= 0.5\nentropy = 0.459\nsamples = 3\nvalue = [[1, 2]\n[2, 1]\n[3, 0]\n[3, 0]]"] ;
257 -> 259 ;
260 [label="entropy = 0.0\nsamples = 1\nvalue = [[1, 0]\n[0, 1]\n[1, 0]\n[1, 0]]"] ;
259 -> 260 ;
261 [label="entropy = 0.0\nsamples = 2\nvalue = [[0, 2]\n[2, 0]\n[2, 0]\n[2, 0]]"] ;
259 -> 261 ;
262 [label="X[20] <= 0.5\nentropy = 0.481\nsamples = 13\nvalue = [[8, 5]\n[13, 0]\n[5, 8]\n[13, 0]]"] ;
240 -> 262 ;
263 [label="X[14] <= 0.5\nentropy = 0.459\nsamples = 6\nvalue = [[2, 4]\n[6, 0]\n[4, 2]\n[6, 0]]"] ;
262 -> 263 ;
264 [label="entropy = 0.0\nsamples = 3\nvalue = [[0, 3]\n[3, 0]\n[3, 0]\n[3, 0]]"] ;
263 -> 264 ;
265 [label="X[11] <= 0.5\nentropy = 0.459\nsamples = 3\nvalue = [[2, 1]\n[3, 0]\n[1, 2]\n[3, 0]]"] ;
263 -> 265 ;
266 [label="entropy = 0.0\nsamples = 2\nvalue = [[2, 0]\n[2, 0]\n[0, 2]\n[2, 0]]"] ;
265 -> 266 ;
267 [label="entropy = 0.0\nsamples = 1\nvalue = [[0, 1]\n[1, 0]\n[1, 0]\n[1, 0]]"] ;
265 -> 267 ;
268 [label="X[10] <= 0.5\nentropy = 0.296\nsamples = 7\nvalue = [[6, 1]\n[7, 0]\n[1, 6]\n[7, 0]]"] ;
262 -> 268 ;
269 [label="entropy = 0.0\nsamples = 5\nvalue = [[5, 0]\n[5, 0]\n[0, 5]\n[5, 0]]"] ;
268 -> 269 ;
270 [label="X[14] <= 0.5\nentropy = 0.5\nsamples = 2\nvalue = [[1, 1]\n[2, 0]\n[1, 1]\n[2, 0]]"] ;
268 -> 270 ;
271 [label="entropy = 0.0\nsamples = 1\nvalue = [[0, 1]\n[1, 0]\n[1, 0]\n[1, 0]]"] ;
270 -> 271 ;
272 [label="entropy = 0.0\nsamples = 1\nvalue = [[1, 0]\n[1, 0]\n[0, 1]\n[1, 0]]"] ;
270 -> 272 ;
273 [label="X[17] <= 0.5\nentropy = 0.497\nsamples = 261\nvalue = [[239, 22]\n[239, 22]\n[62, 199]\n[243, 18]]"] ;
1 -> 273 ;
274 [label="X[10] <= 0.5\nentropy = 0.488\nsamples = 182\nvalue = [[166, 16]\n[162, 20]\n[43, 139]\n[175, 7]]"] ;
273 -> 274 ;
275 [label="X[3] <= 0.5\nentropy = 0.443\nsamples = 135\nvalue = [[126, 9]\n[123, 12]\n[27, 108]\n[129, 6]]"] ;
274 -> 275 ;
276 [label="X[2] <= 0.5\nentropy = 0.474\nsamples = 102\nvalue = [[96, 6]\n[90, 12]\n[23, 79]\n[97, 5]]"] ;
275 -> 276 ;
277 [label="X[7] <= 0.5\nentropy = 0.514\nsamples = 68\nvalue = [[65, 3]\n[57, 11]\n[18, 50]\n[64, 4]]"] ;
276 -> 277 ;
278 [label="X[4] <= 0.5\nentropy = 0.444\nsamples = 54\nvalue = [[52, 2]\n[45, 9]\n[12, 42]\n[53, 1]]"] ;
277 -> 278 ;
279 [label="X[8] <= 0.5\nentropy = 0.366\nsamples = 36\nvalue = [[34, 2]\n[32, 4]\n[6, 30]\n[36, 0]]"] ;
278 -> 279 ;
280 [label="X[20] <= 0.5\nentropy = 0.458\nsamples = 25\nvalue = [[23, 2]\n[21, 4]\n[6, 19]\n[25, 0]]"] ;
279 -> 280 ;
281 [label="entropy = 0.325\nsamples = 12\nvalue = [[12, 0]\n[10, 2]\n[2, 10]\n[12, 0]]"] ;
280 -> 281 ;
282 [label="entropy = 0.532\nsamples = 13\nvalue = [[11, 2]\n[11, 2]\n[4, 9]\n[13, 0]]"] ;
280 -> 282 ;
283 [label="entropy = 0.0\nsamples = 11\nvalue = [[11, 0]\n[11, 0]\n[0, 11]\n[11, 0]]"] ;
279 -> 283 ;
284 [label="X[18] <= 0.5\nentropy = 0.52\nsamples = 18\nvalue = [[18, 0]\n[13, 5]\n[6, 12]\n[17, 1]]"] ;
278 -> 284 ;
285 [label="X[9] <= 0.5\nentropy = 0.252\nsamples = 9\nvalue = [[9, 0]\n[8, 1]\n[1, 8]\n[9, 0]]"] ;
284 -> 285 ;
286 [label="entropy = 0.0\nsamples = 6\nvalue = [[6, 0]\n[6, 0]\n[0, 6]\n[6, 0]]"] ;
285 -> 286 ;
287 [label="entropy = 0.459\nsamples = 3\nvalue = [[3, 0]\n[2, 1]\n[1, 2]\n[3, 0]]"] ;
285 -> 287 ;
288 [label="X[1] <= 0.5\nentropy = 0.621\nsamples = 9\nvalue = [[9, 0]\n[5, 4]\n[5, 4]\n[8, 1]]"] ;
284 -> 288 ;
289 [label="entropy = 0.485\nsamples = 5\nvalue = [[5, 0]\n[3, 2]\n[2, 3]\n[5, 0]]"] ;
288 -> 289 ;
290 [label="entropy = 0.656\nsamples = 4\nvalue = [[4, 0]\n[2, 2]\n[3, 1]\n[3, 1]]"] ;
288 -> 290 ;
291 [label="X[9] <= 0.5\nentropy = 0.674\nsamples = 14\nvalue = [[13, 1]\n[12, 2]\n[6, 8]\n[11, 3]]"] ;
277 -> 291 ;
292 [label="X[15] <= 0.5\nentropy = 0.415\nsamples = 10\nvalue = [[9, 1]\n[10, 0]\n[2, 8]\n[9, 1]]"] ;
291 -> 292 ;
293 [label="X[0] <= 0.5\nentropy = 0.555\nsamples = 6\nvalue = [[5, 1]\n[6, 0]\n[2, 4]\n[5, 1]]"] ;
292 -> 293 ;
294 [label="entropy = 0.689\nsamples = 3\nvalue = [[2, 1]\n[3, 0]\n[2, 1]\n[2, 1]]"] ;
293 -> 294 ;
295 [label="entropy = 0.0\nsamples = 3\nvalue = [[3, 0]\n[3, 0]\n[0, 3]\n[3, 0]]"] ;
293 -> 295 ;
296 [label="entropy = 0.0\nsamples = 4\nvalue = [[4, 0]\n[4, 0]\n[0, 4]\n[4, 0]]"] ;
292 -> 296 ;
297 [label="X[0] <= 0.5\nentropy = 0.5\nsamples = 4\nvalue = [[4, 0]\n[2, 2]\n[4, 0]\n[2, 2]]"] ;
291 -> 297 ;
298 [label="X[20] <= 0.5\nentropy = 0.459\nsamples = 3\nvalue = [[3, 0]\n[1, 2]\n[3, 0]\n[2, 1]]"] ;
297 -> 298 ;
299 [label="entropy = 0.0\nsamples = 1\nvalue = [[1, 0]\n[1, 0]\n[1, 0]\n[0, 1]]"] ;
298 -> 299 ;
300 [label="entropy = 0.0\nsamples = 2\nvalue = [[2, 0]\n[0, 2]\n[2, 0]\n[2, 0]]"] ;
298 -> 300 ;
301 [label="entropy = 0.0\nsamples = 1\nvalue = [[1, 0]\n[1, 0]\n[1, 0]\n[0, 1]]"] ;
297 -> 301 ;
302 [label="X[15] <= 0.5\nentropy = 0.354\nsamples = 34\nvalue = [[31, 3]\n[33, 1]\n[5, 29]\n[33, 1]]"] ;
276 -> 302 ;
303 [label="X[4] <= 0.5\nentropy = 0.489\nsamples = 17\nvalue = [[15, 2]\n[16, 1]\n[4, 13]\n[16, 1]]"] ;
302 -> 303 ;
304 [label="X[6] <= 0.5\nentropy = 0.599\nsamples = 12\nvalue = [[10, 2]\n[11, 1]\n[4, 8]\n[11, 1]]"] ;
303 -> 304 ;
305 [label="X[11] <= 0.5\nentropy = 0.577\nsamples = 8\nvalue = [[6, 2]\n[7, 1]\n[3, 5]\n[8, 0]]"] ;
304 -> 305 ;
306 [label="entropy = 0.406\nsamples = 4\nvalue = [[3, 1]\n[4, 0]\n[1, 3]\n[4, 0]]"] ;
305 -> 306 ;
307 [label="entropy = 0.656\nsamples = 4\nvalue = [[3, 1]\n[3, 1]\n[2, 2]\n[4, 0]]"] ;
305 -> 307 ;
308 [label="X[9] <= 0.5\nentropy = 0.406\nsamples = 4\nvalue = [[4, 0]\n[4, 0]\n[1, 3]\n[3, 1]]"] ;
304 -> 308 ;
309 [label="entropy = 0.0\nsamples = 2\nvalue = [[2, 0]\n[2, 0]\n[0, 2]\n[2, 0]]"] ;
308 -> 309 ;
310 [label="entropy = 0.5\nsamples = 2\nvalue = [[2, 0]\n[2, 0]\n[1, 1]\n[1, 1]]"] ;
308 -> 310 ;
311 [label="entropy = 0.0\nsamples = 5\nvalue = [[5, 0]\n[5, 0]\n[0, 5]\n[5, 0]]"] ;
303 -> 311 ;
312 [label="X[4] <= 0.5\nentropy = 0.161\nsamples = 17\nvalue = [[16, 1]\n[17, 0]\n[1, 16]\n[17, 0]]"] ;
302 -> 312 ;
313 [label="entropy = 0.0\nsamples = 12\nvalue = [[12, 0]\n[12, 0]\n[0, 12]\n[12, 0]]"] ;
312 -> 313 ;
314 [label="X[8] <= 0.5\nentropy = 0.361\nsamples = 5\nvalue = [[4, 1]\n[5, 0]\n[1, 4]\n[5, 0]]"] ;
312 -> 314 ;
315 [label="entropy = 0.0\nsamples = 3\nvalue = [[3, 0]\n[3, 0]\n[0, 3]\n[3, 0]]"] ;
314 -> 315 ;
316 [label="X[18] <= 0.5\nentropy = 0.5\nsamples = 2\nvalue = [[1, 1]\n[2, 0]\n[1, 1]\n[2, 0]]"] ;
314 -> 316 ;
317 [label="entropy = 0.0\nsamples = 1\nvalue = [[0, 1]\n[1, 0]\n[1, 0]\n[1, 0]]"] ;
316 -> 317 ;
318 [label="entropy = 0.0\nsamples = 1\nvalue = [[1, 0]\n[1, 0]\n[0, 1]\n[1, 0]]"] ;
316 -> 318 ;
319 [label="X[6] <= 0.5\nentropy = 0.292\nsamples = 33\nvalue = [[30, 3]\n[33, 0]\n[4, 29]\n[32, 1]]"] ;
275 -> 319 ;
320 [label="X[8] <= 0.5\nentropy = 0.118\nsamples = 26\nvalue = [[25, 1]\n[26, 0]\n[1, 25]\n[26, 0]]"] ;
319 -> 320 ;
321 [label="entropy = 0.0\nsamples = 18\nvalue = [[18, 0]\n[18, 0]\n[0, 18]\n[18, 0]]"] ;
320 -> 321 ;
322 [label="X[7] <= 0.5\nentropy = 0.272\nsamples = 8\nvalue = [[7, 1]\n[8, 0]\n[1, 7]\n[8, 0]]"] ;
320 -> 322 ;
323 [label="entropy = 0.0\nsamples = 5\nvalue = [[5, 0]\n[5, 0]\n[0, 5]\n[5, 0]]"] ;
322 -> 323 ;
324 [label="X[18] <= 0.5\nentropy = 0.459\nsamples = 3\nvalue = [[2, 1]\n[3, 0]\n[1, 2]\n[3, 0]]"] ;
322 -> 324 ;
325 [label="entropy = 0.0\nsamples = 2\nvalue = [[2, 0]\n[2, 0]\n[0, 2]\n[2, 0]]"] ;
324 -> 325 ;
326 [label="entropy = 0.0\nsamples = 1\nvalue = [[0, 1]\n[1, 0]\n[1, 0]\n[1, 0]]"] ;
324 -> 326 ;
327 [label="X[8] <= 0.5\nentropy = 0.61\nsamples = 7\nvalue = [[5, 2]\n[7, 0]\n[3, 4]\n[6, 1]]"] ;
319 -> 327 ;
328 [label="X[16] <= 0.5\nentropy = 0.555\nsamples = 6\nvalue = [[5, 1]\n[6, 0]\n[2, 4]\n[5, 1]]"] ;
327 -> 328 ;
329 [label="X[9] <= 0.5\nentropy = 0.656\nsamples = 4\nvalue = [[3, 1]\n[4, 0]\n[2, 2]\n[3, 1]]"] ;
328 -> 329 ;
330 [label="X[20] <= 0.5\nentropy = 0.5\nsamples = 2\nvalue = [[1, 1]\n[2, 0]\n[2, 0]\n[1, 1]]"] ;
329 -> 330 ;
331 [label="entropy = 0.0\nsamples = 1\nvalue = [[0, 1]\n[1, 0]\n[1, 0]\n[1, 0]]"] ;
330 -> 331 ;
332 [label="entropy = 0.0\nsamples = 1\nvalue = [[1, 0]\n[1, 0]\n[1, 0]\n[0, 1]]"] ;
330 -> 332 ;
333 [label="entropy = 0.0\nsamples = 2\nvalue = [[2, 0]\n[2, 0]\n[0, 2]\n[2, 0]]"] ;
329 -> 333 ;
334 [label="entropy = 0.0\nsamples = 2\nvalue = [[2, 0]\n[2, 0]\n[0, 2]\n[2, 0]]"] ;
328 -> 334 ;
335 [label="entropy = 0.0\nsamples = 1\nvalue = [[0, 1]\n[1, 0]\n[1, 0]\n[1, 0]]"] ;
327 -> 335 ;
336 [label="X[1] <= 0.5\nentropy = 0.585\nsamples = 47\nvalue = [[40, 7]\n[39, 8]\n[16, 31]\n[46, 1]]"] ;
274 -> 336 ;
337 [label="X[16] <= 0.5\nentropy = 0.64\nsamples = 34\nvalue = [[29, 5]\n[26, 8]\n[14, 20]\n[33, 1]]"] ;
336 -> 337 ;
338 [label="X[4] <= 0.5\nentropy = 0.567\nsamples = 16\nvalue = [[13, 3]\n[15, 1]\n[5, 11]\n[15, 1]]"] ;
337 -> 338 ;
339 [label="X[0] <= 0.5\nentropy = 0.68\nsamples = 11\nvalue = [[8, 3]\n[10, 1]\n[5, 6]\n[10, 1]]"] ;
338 -> 339 ;
340 [label="X[6] <= 0.5\nentropy = 0.546\nsamples = 9\nvalue = [[7, 2]\n[8, 1]\n[3, 6]\n[9, 0]]"] ;
339 -> 340 ;
341 [label="X[20] <= 0.5\nentropy = 0.61\nsamples = 7\nvalue = [[5, 2]\n[6, 1]\n[3, 4]\n[7, 0]]"] ;
340 -> 341 ;
342 [label="entropy = 0.689\nsamples = 3\nvalue = [[2, 1]\n[2, 1]\n[2, 1]\n[3, 0]]"] ;
341 -> 342 ;
343 [label="entropy = 0.406\nsamples = 4\nvalue = [[3, 1]\n[4, 0]\n[1, 3]\n[4, 0]]"] ;
341 -> 343 ;
344 [label="entropy = 0.0\nsamples = 2\nvalue = [[2, 0]\n[2, 0]\n[0, 2]\n[2, 0]]"] ;
340 -> 344 ;
345 [label="X[18] <= 0.5\nentropy = 0.5\nsamples = 2\nvalue = [[1, 1]\n[2, 0]\n[2, 0]\n[1, 1]]"] ;
339 -> 345 ;
346 [label="entropy = 0.0\nsamples = 1\nvalue = [[0, 1]\n[1, 0]\n[1, 0]\n[1, 0]]"] ;
345 -> 346 ;
347 [label="entropy = 0.0\nsamples = 1\nvalue = [[1, 0]\n[1, 0]\n[1, 0]\n[0, 1]]"] ;
345 -> 347 ;
348 [label="entropy = 0.0\nsamples = 5\nvalue = [[5, 0]\n[5, 0]\n[0, 5]\n[5, 0]]"] ;
338 -> 348 ;
349 [label="X[18] <= 0.5\nentropy = 0.617\nsamples = 18\nvalue = [[16, 2]\n[11, 7]\n[9, 9]\n[18, 0]]"] ;
337 -> 349 ;
350 [label="X[3] <= 0.5\nentropy = 0.459\nsamples = 9\nvalue = [[9, 0]\n[3, 6]\n[6, 3]\n[9, 0]]"] ;
349 -> 350 ;
351 [label="X[4] <= 0.5\nentropy = 0.5\nsamples = 6\nvalue = [[6, 0]\n[3, 3]\n[3, 3]\n[6, 0]]"] ;
350 -> 351 ;
352 [label="X[6] <= 0.5\nentropy = 0.485\nsamples = 5\nvalue = [[5, 0]\n[3, 2]\n[2, 3]\n[5, 0]]"] ;
351 -> 352 ;
353 [label="entropy = 0.5\nsamples = 4\nvalue = [[4, 0]\n[2, 2]\n[2, 2]\n[4, 0]]"] ;
352 -> 353 ;
354 [label="entropy = 0.0\nsamples = 1\nvalue = [[1, 0]\n[1, 0]\n[0, 1]\n[1, 0]]"] ;
352 -> 354 ;
355 [label="entropy = 0.0\nsamples = 1\nvalue = [[1, 0]\n[0, 1]\n[1, 0]\n[1, 0]]"] ;
351 -> 355 ;
356 [label="entropy = 0.0\nsamples = 3\nvalue = [[3, 0]\n[0, 3]\n[3, 0]\n[3, 0]]"] ;
350 -> 356 ;
357 [label="X[2] <= 0.5\nentropy = 0.546\nsamples = 9\nvalue = [[7, 2]\n[8, 1]\n[3, 6]\n[9, 0]]"] ;
349 -> 357 ;
358 [label="entropy = 0.0\nsamples = 5\nvalue = [[5, 0]\n[5, 0]\n[0, 5]\n[5, 0]]"] ;
357 -> 358 ;
359 [label="X[6] <= 0.5\nentropy = 0.656\nsamples = 4\nvalue = [[2, 2]\n[3, 1]\n[3, 1]\n[4, 0]]"] ;
357 -> 359 ;
360 [label="X[7] <= 0.5\nentropy = 0.459\nsamples = 3\nvalue = [[1, 2]\n[2, 1]\n[3, 0]\n[3, 0]]"] ;
359 -> 360 ;
361 [label="entropy = 0.0\nsamples = 2\nvalue = [[0, 2]\n[2, 0]\n[2, 0]\n[2, 0]]"] ;
360 -> 361 ;
362 [label="entropy = 0.0\nsamples = 1\nvalue = [[1, 0]\n[0, 1]\n[1, 0]\n[1, 0]]"] ;
360 -> 362 ;
363 [label="entropy = 0.0\nsamples = 1\nvalue = [[1, 0]\n[1, 0]\n[0, 1]\n[1, 0]]"] ;
359 -> 363 ;
364 [label="X[15] <= 0.5\nentropy = 0.31\nsamples = 13\nvalue = [[11, 2]\n[13, 0]\n[2, 11]\n[13, 0]]"] ;
336 -> 364 ;
365 [label="X[4] <= 0.5\nentropy = 0.432\nsamples = 7\nvalue = [[5, 2]\n[7, 0]\n[2, 5]\n[7, 0]]"] ;
364 -> 365 ;
366 [label="X[7] <= 0.5\nentropy = 0.325\nsamples = 6\nvalue = [[5, 1]\n[6, 0]\n[1, 5]\n[6, 0]]"] ;
365 -> 366 ;
367 [label="entropy = 0.0\nsamples = 4\nvalue = [[4, 0]\n[4, 0]\n[0, 4]\n[4, 0]]"] ;
366 -> 367 ;
368 [label="X[20] <= 0.5\nentropy = 0.5\nsamples = 2\nvalue = [[1, 1]\n[2, 0]\n[1, 1]\n[2, 0]]"] ;
366 -> 368 ;
369 [label="entropy = 0.0\nsamples = 1\nvalue = [[1, 0]\n[1, 0]\n[0, 1]\n[1, 0]]"] ;
368 -> 369 ;
370 [label="entropy = 0.0\nsamples = 1\nvalue = [[0, 1]\n[1, 0]\n[1, 0]\n[1, 0]]"] ;
368 -> 370 ;
371 [label="entropy = 0.0\nsamples = 1\nvalue = [[0, 1]\n[1, 0]\n[1, 0]\n[1, 0]]"] ;
365 -> 371 ;
372 [label="entropy = 0.0\nsamples = 6\nvalue = [[6, 0]\n[6, 0]\n[0, 6]\n[6, 0]]"] ;
364 -> 372 ;
373 [label="X[10] <= 0.5\nentropy = 0.484\nsamples = 79\nvalue = [[73, 6]\n[77, 2]\n[19, 60]\n[68, 11]]"] ;
273 -> 373 ;
374 [label="X[5] <= 0.5\nentropy = 0.548\nsamples = 58\nvalue = [[52, 6]\n[56, 2]\n[17, 41]\n[49, 9]]"] ;
373 -> 374 ;
375 [label="X[0] <= 0.5\nentropy = 0.518\nsamples = 46\nvalue = [[43, 3]\n[45, 1]\n[13, 33]\n[37, 9]]"] ;
374 -> 375 ;
376 [label="X[6] <= 0.5\nentropy = 0.502\nsamples = 36\nvalue = [[34, 2]\n[36, 0]\n[11, 25]\n[27, 9]]"] ;
375 -> 376 ;
377 [label="X[8] <= 0.5\nentropy = 0.544\nsamples = 28\nvalue = [[26, 2]\n[28, 0]\n[10, 18]\n[20, 8]]"] ;
376 -> 377 ;
378 [label="X[3] <= 0.5\nentropy = 0.593\nsamples = 17\nvalue = [[15, 2]\n[17, 0]\n[7, 10]\n[12, 5]]"] ;
377 -> 378 ;
379 [label="X[11] <= 0.5\nentropy = 0.61\nsamples = 12\nvalue = [[10, 2]\n[12, 0]\n[5, 7]\n[9, 3]]"] ;
378 -> 379 ;
380 [label="entropy = 0.555\nsamples = 6\nvalue = [[5, 1]\n[6, 0]\n[2, 4]\n[5, 1]]"] ;
379 -> 380 ;
381 [label="entropy = 0.642\nsamples = 6\nvalue = [[5, 1]\n[6, 0]\n[3, 3]\n[4, 2]]"] ;
379 -> 381 ;
382 [label="X[4] <= 0.5\nentropy = 0.485\nsamples = 5\nvalue = [[5, 0]\n[5, 0]\n[2, 3]\n[3, 2]]"] ;
378 -> 382 ;
383 [label="entropy = 0.459\nsamples = 3\nvalue = [[3, 0]\n[3, 0]\n[2, 1]\n[1, 2]]"] ;
382 -> 383 ;
384 [label="entropy = 0.0\nsamples = 2\nvalue = [[2, 0]\n[2, 0]\n[0, 2]\n[2, 0]]"] ;
382 -> 384 ;
385 [label="X[18] <= 0.5\nentropy = 0.423\nsamples = 11\nvalue = [[11, 0]\n[11, 0]\n[3, 8]\n[8, 3]]"] ;
377 -> 385 ;
386 [label="X[3] <= 0.5\nentropy = 0.485\nsamples = 5\nvalue = [[5, 0]\n[5, 0]\n[2, 3]\n[3, 2]]"] ;
385 -> 386 ;
387 [label="entropy = 0.5\nsamples = 4\nvalue = [[4, 0]\n[4, 0]\n[2, 2]\n[2, 2]]"] ;
386 -> 387 ;
388 [label="entropy = 0.0\nsamples = 1\nvalue = [[1, 0]\n[1, 0]\n[0, 1]\n[1, 0]]"] ;
386 -> 388 ;
389 [label="X[3] <= 0.5\nentropy = 0.325\nsamples = 6\nvalue = [[6, 0]\n[6, 0]\n[1, 5]\n[5, 1]]"] ;
385 -> 389 ;
390 [label="entropy = 0.0\nsamples = 4\nvalue = [[4, 0]\n[4, 0]\n[0, 4]\n[4, 0]]"] ;
389 -> 390 ;
391 [label="entropy = 0.5\nsamples = 2\nvalue = [[2, 0]\n[2, 0]\n[1, 1]\n[1, 1]]"] ;
389 -> 391 ;
392 [label="X[18] <= 0.5\nentropy = 0.272\nsamples = 8\nvalue = [[8, 0]\n[8, 0]\n[1, 7]\n[7, 1]]"] ;
376 -> 392 ;
393 [label="entropy = 0.0\nsamples = 5\nvalue = [[5, 0]\n[5, 0]\n[0, 5]\n[5, 0]]"] ;
392 -> 393 ;
394 [label="X[3] <= 0.5\nentropy = 0.459\nsamples = 3\nvalue = [[3, 0]\n[3, 0]\n[1, 2]\n[2, 1]]"] ;
392 -> 394 ;
395 [label="entropy = 0.0\nsamples = 2\nvalue = [[2, 0]\n[2, 0]\n[0, 2]\n[2, 0]]"] ;
394 -> 395 ;
396 [label="entropy = 0.0\nsamples = 1\nvalue = [[1, 0]\n[1, 0]\n[1, 0]\n[0, 1]]"] ;
394 -> 396 ;
397 [label="X[20] <= 0.5\nentropy = 0.415\nsamples = 10\nvalue = [[9, 1]\n[9, 1]\n[2, 8]\n[10, 0]]"] ;
375 -> 397 ;
398 [label="entropy = 0.0\nsamples = 5\nvalue = [[5, 0]\n[5, 0]\n[0, 5]\n[5, 0]]"] ;
397 -> 398 ;
399 [label="X[8] <= 0.5\nentropy = 0.604\nsamples = 5\nvalue = [[4, 1]\n[4, 1]\n[2, 3]\n[5, 0]]"] ;
397 -> 399 ;
400 [label="X[9] <= 0.5\nentropy = 0.406\nsamples = 4\nvalue = [[3, 1]\n[4, 0]\n[1, 3]\n[4, 0]]"] ;
399 -> 400 ;
401 [label="X[7] <= 0.5\nentropy = 0.5\nsamples = 2\nvalue = [[1, 1]\n[2, 0]\n[1, 1]\n[2, 0]]"] ;
400 -> 401 ;
402 [label="entropy = 0.0\nsamples = 1\nvalue = [[0, 1]\n[1, 0]\n[1, 0]\n[1, 0]]"] ;
401 -> 402 ;
403 [label="entropy = 0.0\nsamples = 1\nvalue = [[1, 0]\n[1, 0]\n[0, 1]\n[1, 0]]"] ;
401 -> 403 ;
404 [label="entropy = 0.0\nsamples = 2\nvalue = [[2, 0]\n[2, 0]\n[0, 2]\n[2, 0]]"] ;
400 -> 404 ;
405 [label="entropy = 0.0\nsamples = 1\nvalue = [[1, 0]\n[0, 1]\n[1, 0]\n[1, 0]]"] ;
399 -> 405 ;
406 [label="X[20] <= 0.5\nentropy = 0.536\nsamples = 12\nvalue = [[9, 3]\n[11, 1]\n[4, 8]\n[12, 0]]"] ;
374 -> 406 ;
407 [label="X[2] <= 0.5\nentropy = 0.642\nsamples = 6\nvalue = [[3, 3]\n[5, 1]\n[4, 2]\n[6, 0]]"] ;
406 -> 407 ;
408 [label="X[11] <= 0.5\nentropy = 0.485\nsamples = 5\nvalue = [[2, 3]\n[5, 0]\n[3, 2]\n[5, 0]]"] ;
407 -> 408 ;
409 [label="X[3] <= 0.5\nentropy = 0.406\nsamples = 4\nvalue = [[1, 3]\n[4, 0]\n[3, 1]\n[4, 0]]"] ;
408 -> 409 ;
410 [label="entropy = 0.0\nsamples = 3\nvalue = [[0, 3]\n[3, 0]\n[3, 0]\n[3, 0]]"] ;
409 -> 410 ;
411 [label="entropy = 0.0\nsamples = 1\nvalue = [[1, 0]\n[1, 0]\n[0, 1]\n[1, 0]]"] ;
409 -> 411 ;
412 [label="entropy = 0.0\nsamples = 1\nvalue = [[1, 0]\n[1, 0]\n[0, 1]\n[1, 0]]"] ;
408 -> 412 ;
413 [label="entropy = 0.0\nsamples = 1\nvalue = [[1, 0]\n[0, 1]\n[1, 0]\n[1, 0]]"] ;
407 -> 413 ;
414 [label="entropy = 0.0\nsamples = 6\nvalue = [[6, 0]\n[6, 0]\n[0, 6]\n[6, 0]]"] ;
406 -> 414 ;
415 [label="X[20] <= 0.5\nentropy = 0.227\nsamples = 21\nvalue = [[21, 0]\n[21, 0]\n[2, 19]\n[19, 2]]"] ;
373 -> 415 ;
416 [label="entropy = 0.0\nsamples = 9\nvalue = [[9, 0]\n[9, 0]\n[0, 9]\n[9, 0]]"] ;
415 -> 416 ;
417 [label="X[7] <= 0.5\nentropy = 0.325\nsamples = 12\nvalue = [[12, 0]\n[12, 0]\n[2, 10]\n[10, 2]]"] ;
415 -> 417 ;
418 [label="X[2] <= 0.5\nentropy = 0.382\nsamples = 9\nvalue = [[9, 0]\n[9, 0]\n[2, 7]\n[7, 2]]"] ;
417 -> 418 ;
419 [label="X[5] <= 0.5\nentropy = 0.432\nsamples = 7\nvalue = [[7, 0]\n[7, 0]\n[2, 5]\n[5, 2]]"] ;
418 -> 419 ;
420 [label="X[3] <= 0.5\nentropy = 0.485\nsamples = 5\nvalue = [[5, 0]\n[5, 0]\n[2, 3]\n[3, 2]]"] ;
419 -> 420 ;
421 [label="X[4] <= 0.5\nentropy = 0.5\nsamples = 4\nvalue = [[4, 0]\n[4, 0]\n[2, 2]\n[2, 2]]"] ;
420 -> 421 ;
422 [label="entropy = 0.5\nsamples = 2\nvalue = [[2, 0]\n[2, 0]\n[1, 1]\n[1, 1]]"] ;
421 -> 422 ;
423 [label="entropy = 0.5\nsamples = 2\nvalue = [[2, 0]\n[2, 0]\n[1, 1]\n[1, 1]]"] ;
421 -> 423 ;
424 [label="entropy = 0.0\nsamples = 1\nvalue = [[1, 0]\n[1, 0]\n[0, 1]\n[1, 0]]"] ;
420 -> 424 ;
425 [label="entropy = 0.0\nsamples = 2\nvalue = [[2, 0]\n[2, 0]\n[0, 2]\n[2, 0]]"] ;
419 -> 425 ;
426 [label="entropy = 0.0\nsamples = 2\nvalue = [[2, 0]\n[2, 0]\n[0, 2]\n[2, 0]]"] ;
418 -> 426 ;
427 [label="entropy = 0.0\nsamples = 3\nvalue = [[3, 0]\n[3, 0]\n[0, 3]\n[3, 0]]"] ;
417 -> 427 ;
428 [label="X[10] <= 0.5\nentropy = 0.395\nsamples = 375\nvalue = [[348, 27]\n[355, 20]\n[63, 312]\n[359, 16]]"] ;
0 -> 428 [labeldistance=2.5, labelangle=-45, headlabel="False"] ;
429 [label="X[14] <= 0.5\nentropy = 0.432\nsamples = 277\nvalue = [[256, 21]\n[259, 18]\n[53, 224]\n[263, 14]]"] ;
428 -> 429 ;
430 [label="X[8] <= 0.5\nentropy = 0.378\nsamples = 185\nvalue = [[174, 11]\n[175, 10]\n[29, 156]\n[177, 8]]"] ;
429 -> 430 ;
431 [label="X[17] <= 0.5\nentropy = 0.426\nsamples = 117\nvalue = [[109, 8]\n[108, 9]\n[22, 95]\n[112, 5]]"] ;
430 -> 431 ;
432 [label="X[4] <= 0.5\nentropy = 0.429\nsamples = 74\nvalue = [[69, 5]\n[70, 4]\n[14, 60]\n[69, 5]]"] ;
431 -> 432 ;
433 [label="X[7] <= 0.5\nentropy = 0.374\nsamples = 58\nvalue = [[55, 3]\n[54, 4]\n[9, 49]\n[56, 2]]"] ;
432 -> 433 ;
434 [label="X[3] <= 0.5\nentropy = 0.363\nsamples = 37\nvalue = [[34, 3]\n[34, 3]\n[6, 31]\n[37, 0]]"] ;
433 -> 434 ;
435 [label="X[12] <= 0.5\nentropy = 0.394\nsamples = 27\nvalue = [[24, 3]\n[25, 2]\n[5, 22]\n[27, 0]]"] ;
434 -> 435 ;
436 [label="X[1] <= 0.5\nentropy = 0.492\nsamples = 15\nvalue = [[13, 2]\n[13, 2]\n[4, 11]\n[15, 0]]"] ;
435 -> 436 ;
437 [label="entropy = 0.518\nsamples = 10\nvalue = [[8, 2]\n[9, 1]\n[3, 7]\n[10, 0]]"] ;
436 -> 437 ;
438 [label="entropy = 0.361\nsamples = 5\nvalue = [[5, 0]\n[4, 1]\n[1, 4]\n[5, 0]]"] ;
436 -> 438 ;
439 [label="X[1] <= 0.5\nentropy = 0.207\nsamples = 12\nvalue = [[11, 1]\n[12, 0]\n[1, 11]\n[12, 0]]"] ;
435 -> 439 ;
440 [label="entropy = 0.0\nsamples = 8\nvalue = [[8, 0]\n[8, 0]\n[0, 8]\n[8, 0]]"] ;
439 -> 440 ;
441 [label="entropy = 0.406\nsamples = 4\nvalue = [[3, 1]\n[4, 0]\n[1, 3]\n[4, 0]]"] ;
439 -> 441 ;
442 [label="X[11] <= 0.5\nentropy = 0.234\nsamples = 10\nvalue = [[10, 0]\n[9, 1]\n[1, 9]\n[10, 0]]"] ;
434 -> 442 ;
443 [label="X[5] <= 0.5\nentropy = 0.406\nsamples = 4\nvalue = [[4, 0]\n[3, 1]\n[1, 3]\n[4, 0]]"] ;
442 -> 443 ;
444 [label="entropy = 0.0\nsamples = 2\nvalue = [[2, 0]\n[2, 0]\n[0, 2]\n[2, 0]]"] ;
443 -> 444 ;
445 [label="entropy = 0.5\nsamples = 2\nvalue = [[2, 0]\n[1, 1]\n[1, 1]\n[2, 0]]"] ;
443 -> 445 ;
446 [label="entropy = 0.0\nsamples = 6\nvalue = [[6, 0]\n[6, 0]\n[0, 6]\n[6, 0]]"] ;
442 -> 446 ;
447 [label="X[9] <= 0.5\nentropy = 0.33\nsamples = 21\nvalue = [[21, 0]\n[20, 1]\n[3, 18]\n[19, 2]]"] ;
433 -> 447 ;
448 [label="entropy = 0.0\nsamples = 10\nvalue = [[10, 0]\n[10, 0]\n[0, 10]\n[10, 0]]"] ;
447 -> 448 ;
449 [label="X[13] <= 0.5\nentropy = 0.492\nsamples = 11\nvalue = [[11, 0]\n[10, 1]\n[3, 8]\n[9, 2]]"] ;
447 -> 449 ;
450 [label="X[3] <= 0.5\nentropy = 0.361\nsamples = 5\nvalue = [[5, 0]\n[4, 1]\n[1, 4]\n[5, 0]]"] ;
449 -> 450 ;
451 [label="entropy = 0.0\nsamples = 3\nvalue = [[3, 0]\n[3, 0]\n[0, 3]\n[3, 0]]"] ;
450 -> 451 ;
452 [label="entropy = 0.5\nsamples = 2\nvalue = [[2, 0]\n[1, 1]\n[1, 1]\n[2, 0]]"] ;
450 -> 452 ;
453 [label="X[3] <= 0.5\nentropy = 0.459\nsamples = 6\nvalue = [[6, 0]\n[6, 0]\n[2, 4]\n[4, 2]]"] ;
449 -> 453 ;
454 [label="entropy = 0.5\nsamples = 4\nvalue = [[4, 0]\n[4, 0]\n[2, 2]\n[2, 2]]"] ;
453 -> 454 ;
455 [label="entropy = 0.0\nsamples = 2\nvalue = [[2, 0]\n[2, 0]\n[0, 2]\n[2, 0]]"] ;
453 -> 455 ;
456 [label="X[13] <= 0.5\nentropy = 0.534\nsamples = 16\nvalue = [[14, 2]\n[16, 0]\n[5, 11]\n[13, 3]]"] ;
432 -> 456 ;
457 [label="X[3] <= 0.5\nentropy = 0.603\nsamples = 9\nvalue = [[8, 1]\n[9, 0]\n[4, 5]\n[6, 3]]"] ;
456 -> 457 ;
458 [label="X[11] <= 0.5\nentropy = 0.432\nsamples = 7\nvalue = [[7, 0]\n[7, 0]\n[2, 5]\n[5, 2]]"] ;
457 -> 458 ;
459 [label="entropy = 0.0\nsamples = 3\nvalue = [[3, 0]\n[3, 0]\n[0, 3]\n[3, 0]]"] ;
458 -> 459 ;
460 [label="X[15] <= 0.5\nentropy = 0.5\nsamples = 4\nvalue = [[4, 0]\n[4, 0]\n[2, 2]\n[2, 2]]"] ;
458 -> 460 ;
461 [label="entropy = 0.459\nsamples = 3\nvalue = [[3, 0]\n[3, 0]\n[1, 2]\n[2, 1]]"] ;
460 -> 461 ;
462 [label="entropy = 0.0\nsamples = 1\nvalue = [[1, 0]\n[1, 0]\n[1, 0]\n[0, 1]]"] ;
460 -> 462 ;
463 [label="X[9] <= 0.5\nentropy = 0.5\nsamples = 2\nvalue = [[1, 1]\n[2, 0]\n[2, 0]\n[1, 1]]"] ;
457 -> 463 ;
464 [label="entropy = 0.0\nsamples = 1\nvalue = [[1, 0]\n[1, 0]\n[1, 0]\n[0, 1]]"] ;
463 -> 464 ;
465 [label="entropy = 0.0\nsamples = 1\nvalue = [[0, 1]\n[1, 0]\n[1, 0]\n[1, 0]]"] ;
463 -> 465 ;
466 [label="X[2] <= 0.5\nentropy = 0.296\nsamples = 7\nvalue = [[6, 1]\n[7, 0]\n[1, 6]\n[7, 0]]"] ;
456 -> 466 ;
467 [label="entropy = 0.0\nsamples = 6\nvalue = [[6, 0]\n[6, 0]\n[0, 6]\n[6, 0]]"] ;
466 -> 467 ;
468 [label="entropy = 0.0\nsamples = 1\nvalue = [[0, 1]\n[1, 0]\n[1, 0]\n[1, 0]]"] ;
466 -> 468 ;
469 [label="X[0] <= 0.5\nentropy = 0.394\nsamples = 43\nvalue = [[40, 3]\n[38, 5]\n[8, 35]\n[43, 0]]"] ;
431 -> 469 ;
470 [label="X[1] <= 0.5\nentropy = 0.296\nsamples = 35\nvalue = [[35, 0]\n[30, 5]\n[5, 30]\n[35, 0]]"] ;
469 -> 470 ;
471 [label="X[4] <= 0.5\nentropy = 0.22\nsamples = 22\nvalue = [[22, 0]\n[20, 2]\n[2, 20]\n[22, 0]]"] ;
470 -> 471 ;
472 [label="X[7] <= 0.5\nentropy = 0.261\nsamples = 17\nvalue = [[17, 0]\n[15, 2]\n[2, 15]\n[17, 0]]"] ;
471 -> 472 ;
473 [label="X[3] <= 0.5\nentropy = 0.325\nsamples = 12\nvalue = [[12, 0]\n[10, 2]\n[2, 10]\n[12, 0]]"] ;
472 -> 473 ;
474 [label="entropy = 0.296\nsamples = 7\nvalue = [[7, 0]\n[6, 1]\n[1, 6]\n[7, 0]]"] ;
473 -> 474 ;
475 [label="entropy = 0.361\nsamples = 5\nvalue = [[5, 0]\n[4, 1]\n[1, 4]\n[5, 0]]"] ;
473 -> 475 ;
476 [label="entropy = 0.0\nsamples = 5\nvalue = [[5, 0]\n[5, 0]\n[0, 5]\n[5, 0]]"] ;
472 -> 476 ;
477 [label="entropy = 0.0\nsamples = 5\nvalue = [[5, 0]\n[5, 0]\n[0, 5]\n[5, 0]]"] ;
471 -> 477 ;
478 [label="X[5] <= 0.5\nentropy = 0.39\nsamples = 13\nvalue = [[13, 0]\n[10, 3]\n[3, 10]\n[13, 0]]"] ;
470 -> 478 ;
479 [label="X[13] <= 0.5\nentropy = 0.459\nsamples = 9\nvalue = [[9, 0]\n[6, 3]\n[3, 6]\n[9, 0]]"] ;
478 -> 479 ;
480 [label="X[9] <= 0.5\nentropy = 0.5\nsamples = 4\nvalue = [[4, 0]\n[2, 2]\n[2, 2]\n[4, 0]]"] ;
479 -> 480 ;
481 [label="entropy = 0.5\nsamples = 2\nvalue = [[2, 0]\n[1, 1]\n[1, 1]\n[2, 0]]"] ;
480 -> 481 ;
482 [label="entropy = 0.5\nsamples = 2\nvalue = [[2, 0]\n[1, 1]\n[1, 1]\n[2, 0]]"] ;
480 -> 482 ;
483 [label="X[7] <= 0.5\nentropy = 0.361\nsamples = 5\nvalue = [[5, 0]\n[4, 1]\n[1, 4]\n[5, 0]]"] ;
479 -> 483 ;
484 [label="entropy = 0.0\nsamples = 3\nvalue = [[3, 0]\n[3, 0]\n[0, 3]\n[3, 0]]"] ;
483 -> 484 ;
485 [label="entropy = 0.5\nsamples = 2\nvalue = [[2, 0]\n[1, 1]\n[1, 1]\n[2, 0]]"] ;
483 -> 485 ;
486 [label="entropy = 0.0\nsamples = 4\nvalue = [[4, 0]\n[4, 0]\n[0, 4]\n[4, 0]]"] ;
478 -> 486 ;
487 [label="X[5] <= 0.5\nentropy = 0.477\nsamples = 8\nvalue = [[5, 3]\n[8, 0]\n[3, 5]\n[8, 0]]"] ;
469 -> 487 ;
488 [label="X[4] <= 0.5\nentropy = 0.5\nsamples = 6\nvalue = [[3, 3]\n[6, 0]\n[3, 3]\n[6, 0]]"] ;
487 -> 488 ;
489 [label="X[11] <= 0.5\nentropy = 0.485\nsamples = 5\nvalue = [[2, 3]\n[5, 0]\n[3, 2]\n[5, 0]]"] ;
488 -> 489 ;
490 [label="entropy = 0.0\nsamples = 2\nvalue = [[0, 2]\n[2, 0]\n[2, 0]\n[2, 0]]"] ;
489 -> 490 ;
491 [label="X[12] <= 0.5\nentropy = 0.459\nsamples = 3\nvalue = [[2, 1]\n[3, 0]\n[1, 2]\n[3, 0]]"] ;
489 -> 491 ;
492 [label="entropy = 0.0\nsamples = 1\nvalue = [[1, 0]\n[1, 0]\n[0, 1]\n[1, 0]]"] ;
491 -> 492 ;
493 [label="entropy = 0.5\nsamples = 2\nvalue = [[1, 1]\n[2, 0]\n[1, 1]\n[2, 0]]"] ;
491 -> 493 ;
494 [label="entropy = 0.0\nsamples = 1\nvalue = [[1, 0]\n[1, 0]\n[0, 1]\n[1, 0]]"] ;
488 -> 494 ;
495 [label="entropy = 0.0\nsamples = 2\nvalue = [[2, 0]\n[2, 0]\n[0, 2]\n[2, 0]]"] ;
487 -> 495 ;
496 [label="X[12] <= 0.5\nentropy = 0.278\nsamples = 68\nvalue = [[65, 3]\n[67, 1]\n[7, 61]\n[65, 3]]"] ;
430 -> 496 ;
497 [label="X[0] <= 0.5\nentropy = 0.361\nsamples = 33\nvalue = [[30, 3]\n[32, 1]\n[5, 28]\n[32, 1]]"] ;
496 -> 497 ;
498 [label="X[5] <= 0.5\nentropy = 0.213\nsamples = 23\nvalue = [[21, 2]\n[23, 0]\n[2, 21]\n[23, 0]]"] ;
497 -> 498 ;
499 [label="X[7] <= 0.5\nentropy = 0.283\nsamples = 15\nvalue = [[13, 2]\n[15, 0]\n[2, 13]\n[15, 0]]"] ;
498 -> 499 ;
500 [label="X[2] <= 0.5\nentropy = 0.361\nsamples = 10\nvalue = [[8, 2]\n[10, 0]\n[2, 8]\n[10, 0]]"] ;
499 -> 500 ;
501 [label="X[16] <= 0.5\nentropy = 0.432\nsamples = 7\nvalue = [[5, 2]\n[7, 0]\n[2, 5]\n[7, 0]]"] ;
500 -> 501 ;
502 [label="entropy = 0.459\nsamples = 6\nvalue = [[4, 2]\n[6, 0]\n[2, 4]\n[6, 0]]"] ;
501 -> 502 ;
503 [label="entropy = 0.0\nsamples = 1\nvalue = [[1, 0]\n[1, 0]\n[0, 1]\n[1, 0]]"] ;
501 -> 503 ;
504 [label="entropy = 0.0\nsamples = 3\nvalue = [[3, 0]\n[3, 0]\n[0, 3]\n[3, 0]]"] ;
500 -> 504 ;
505 [label="entropy = 0.0\nsamples = 5\nvalue = [[5, 0]\n[5, 0]\n[0, 5]\n[5, 0]]"] ;
499 -> 505 ;
506 [label="entropy = 0.0\nsamples = 8\nvalue = [[8, 0]\n[8, 0]\n[0, 8]\n[8, 0]]"] ;
498 -> 506 ;
507 [label="X[16] <= 0.5\nentropy = 0.572\nsamples = 10\nvalue = [[9, 1]\n[9, 1]\n[3, 7]\n[9, 1]]"] ;
497 -> 507 ;
508 [label="X[6] <= 0.5\nentropy = 0.296\nsamples = 7\nvalue = [[7, 0]\n[6, 1]\n[1, 6]\n[7, 0]]"] ;
507 -> 508 ;
509 [label="entropy = 0.0\nsamples = 5\nvalue = [[5, 0]\n[5, 0]\n[0, 5]\n[5, 0]]"] ;
508 -> 509 ;
510 [label="X[17] <= 0.5\nentropy = 0.5\nsamples = 2\nvalue = [[2, 0]\n[1, 1]\n[1, 1]\n[2, 0]]"] ;
508 -> 510 ;
511 [label="entropy = 0.0\nsamples = 1\nvalue = [[1, 0]\n[0, 1]\n[1, 0]\n[1, 0]]"] ;
510 -> 511 ;
512 [label="entropy = 0.0\nsamples = 1\nvalue = [[1, 0]\n[1, 0]\n[0, 1]\n[1, 0]]"] ;
510 -> 512 ;
513 [label="X[5] <= 0.5\nentropy = 0.689\nsamples = 3\nvalue = [[2, 1]\n[3, 0]\n[2, 1]\n[2, 1]]"] ;
507 -> 513 ;
514 [label="X[4] <= 0.5\nentropy = 0.5\nsamples = 2\nvalue = [[2, 0]\n[2, 0]\n[1, 1]\n[1, 1]]"] ;
513 -> 514 ;
515 [label="entropy = 0.0\nsamples = 1\nvalue = [[1, 0]\n[1, 0]\n[1, 0]\n[0, 1]]"] ;
514 -> 515 ;
516 [label="entropy = 0.0\nsamples = 1\nvalue = [[1, 0]\n[1, 0]\n[0, 1]\n[1, 0]]"] ;
514 -> 516 ;
517 [label="entropy = 0.0\nsamples = 1\nvalue = [[0, 1]\n[1, 0]\n[1, 0]\n[1, 0]]"] ;
513 -> 517 ;
518 [label="X[15] <= 0.5\nentropy = 0.158\nsamples = 35\nvalue = [[35, 0]\n[35, 0]\n[2, 33]\n[33, 2]]"] ;
496 -> 518 ;
519 [label="X[7] <= 0.5\nentropy = 0.213\nsamples = 23\nvalue = [[23, 0]\n[23, 0]\n[2, 21]\n[21, 2]]"] ;
518 -> 519 ;
520 [label="X[4] <= 0.5\nentropy = 0.272\nsamples = 16\nvalue = [[16, 0]\n[16, 0]\n[2, 14]\n[14, 2]]"] ;
519 -> 520 ;
521 [label="X[1] <= 0.5\nentropy = 0.382\nsamples = 9\nvalue = [[9, 0]\n[9, 0]\n[2, 7]\n[7, 2]]"] ;
520 -> 521 ;
522 [label="X[16] <= 0.5\nentropy = 0.272\nsamples = 8\nvalue = [[8, 0]\n[8, 0]\n[1, 7]\n[7, 1]]"] ;
521 -> 522 ;
523 [label="entropy = 0.0\nsamples = 6\nvalue = [[6, 0]\n[6, 0]\n[0, 6]\n[6, 0]]"] ;
522 -> 523 ;
524 [label="entropy = 0.5\nsamples = 2\nvalue = [[2, 0]\n[2, 0]\n[1, 1]\n[1, 1]]"] ;
522 -> 524 ;
525 [label="entropy = 0.0\nsamples = 1\nvalue = [[1, 0]\n[1, 0]\n[1, 0]\n[0, 1]]"] ;
521 -> 525 ;
526 [label="entropy = 0.0\nsamples = 7\nvalue = [[7, 0]\n[7, 0]\n[0, 7]\n[7, 0]]"] ;
520 -> 526 ;
527 [label="entropy = 0.0\nsamples = 7\nvalue = [[7, 0]\n[7, 0]\n[0, 7]\n[7, 0]]"] ;
519 -> 527 ;
528 [label="entropy = 0.0\nsamples = 12\nvalue = [[12, 0]\n[12, 0]\n[0, 12]\n[12, 0]]"] ;
518 -> 528 ;
529 [label="X[4] <= 0.5\nentropy = 0.525\nsamples = 92\nvalue = [[82, 10]\n[84, 8]\n[24, 68]\n[86, 6]]"] ;
429 -> 529 ;
530 [label="X[2] <= 0.5\nentropy = 0.473\nsamples = 68\nvalue = [[64, 4]\n[62, 6]\n[15, 53]\n[63, 5]]"] ;
529 -> 530 ;
531 [label="X[11] <= 0.5\nentropy = 0.536\nsamples = 52\nvalue = [[48, 4]\n[47, 5]\n[14, 38]\n[47, 5]]"] ;
530 -> 531 ;
532 [label="X[5] <= 0.5\nentropy = 0.574\nsamples = 36\nvalue = [[33, 3]\n[31, 5]\n[11, 25]\n[33, 3]]"] ;
531 -> 532 ;
533 [label="X[0] <= 0.5\nentropy = 0.646\nsamples = 24\nvalue = [[21, 3]\n[21, 3]\n[9, 15]\n[21, 3]]"] ;
532 -> 533 ;
534 [label="X[17] <= 0.5\nentropy = 0.633\nsamples = 16\nvalue = [[14, 2]\n[13, 3]\n[6, 10]\n[15, 1]]"] ;
533 -> 534 ;
535 [label="X[3] <= 0.5\nentropy = 0.518\nsamples = 10\nvalue = [[8, 2]\n[9, 1]\n[3, 7]\n[10, 0]]"] ;
534 -> 535 ;
536 [label="entropy = 0.604\nsamples = 5\nvalue = [[4, 1]\n[4, 1]\n[2, 3]\n[5, 0]]"] ;
535 -> 536 ;
537 [label="entropy = 0.361\nsamples = 5\nvalue = [[4, 1]\n[5, 0]\n[1, 4]\n[5, 0]]"] ;
535 -> 537 ;
538 [label="X[7] <= 0.5\nentropy = 0.642\nsamples = 6\nvalue = [[6, 0]\n[4, 2]\n[3, 3]\n[5, 1]]"] ;
534 -> 538 ;
539 [label="entropy = 0.5\nsamples = 2\nvalue = [[2, 0]\n[1, 1]\n[2, 0]\n[1, 1]]"] ;
538 -> 539 ;
540 [label="entropy = 0.406\nsamples = 4\nvalue = [[4, 0]\n[3, 1]\n[1, 3]\n[4, 0]]"] ;
538 -> 540 ;
541 [label="X[8] <= 0.5\nentropy = 0.577\nsamples = 8\nvalue = [[7, 1]\n[8, 0]\n[3, 5]\n[6, 2]]"] ;
533 -> 541 ;
542 [label="X[7] <= 0.5\nentropy = 0.666\nsamples = 5\nvalue = [[4, 1]\n[5, 0]\n[3, 2]\n[3, 2]]"] ;
541 -> 542 ;
543 [label="entropy = 0.0\nsamples = 2\nvalue = [[2, 0]\n[2, 0]\n[0, 2]\n[2, 0]]"] ;
542 -> 543 ;
544 [label="entropy = 0.459\nsamples = 3\nvalue = [[2, 1]\n[3, 0]\n[3, 0]\n[1, 2]]"] ;
542 -> 544 ;
545 [label="entropy = 0.0\nsamples = 3\nvalue = [[3, 0]\n[3, 0]\n[0, 3]\n[3, 0]]"] ;
541 -> 545 ;
546 [label="X[17] <= 0.5\nentropy = 0.325\nsamples = 12\nvalue = [[12, 0]\n[10, 2]\n[2, 10]\n[12, 0]]"] ;
532 -> 546 ;
547 [label="X[1] <= 0.5\nentropy = 0.406\nsamples = 8\nvalue = [[8, 0]\n[6, 2]\n[2, 6]\n[8, 0]]"] ;
546 -> 547 ;
548 [label="X[0] <= 0.5\nentropy = 0.459\nsamples = 6\nvalue = [[6, 0]\n[4, 2]\n[2, 4]\n[6, 0]]"] ;
547 -> 548 ;
549 [label="entropy = 0.5\nsamples = 2\nvalue = [[2, 0]\n[1, 1]\n[1, 1]\n[2, 0]]"] ;
548 -> 549 ;
550 [label="entropy = 0.406\nsamples = 4\nvalue = [[4, 0]\n[3, 1]\n[1, 3]\n[4, 0]]"] ;
548 -> 550 ;
551 [label="entropy = 0.0\nsamples = 2\nvalue = [[2, 0]\n[2, 0]\n[0, 2]\n[2, 0]]"] ;
547 -> 551 ;
552 [label="entropy = 0.0\nsamples = 4\nvalue = [[4, 0]\n[4, 0]\n[0, 4]\n[4, 0]]"] ;
546 -> 552 ;
553 [label="X[5] <= 0.5\nentropy = 0.394\nsamples = 16\nvalue = [[15, 1]\n[16, 0]\n[3, 13]\n[14, 2]]"] ;
531 -> 553 ;
554 [label="entropy = 0.0\nsamples = 10\nvalue = [[10, 0]\n[10, 0]\n[0, 10]\n[10, 0]]"] ;
553 -> 554 ;
555 [label="X[1] <= 0.5\nentropy = 0.642\nsamples = 6\nvalue = [[5, 1]\n[6, 0]\n[3, 3]\n[4, 2]]"] ;
553 -> 555 ;
556 [label="X[17] <= 0.5\nentropy = 0.406\nsamples = 4\nvalue = [[3, 1]\n[4, 0]\n[1, 3]\n[4, 0]]"] ;
555 -> 556 ;
557 [label="entropy = 0.0\nsamples = 3\nvalue = [[3, 0]\n[3, 0]\n[0, 3]\n[3, 0]]"] ;
556 -> 557 ;
558 [label="entropy = 0.0\nsamples = 1\nvalue = [[0, 1]\n[1, 0]\n[1, 0]\n[1, 0]]"] ;
556 -> 558 ;
559 [label="entropy = 0.0\nsamples = 2\nvalue = [[2, 0]\n[2, 0]\n[2, 0]\n[0, 2]]"] ;
555 -> 559 ;
560 [label="X[6] <= 0.5\nentropy = 0.169\nsamples = 16\nvalue = [[16, 0]\n[15, 1]\n[1, 15]\n[16, 0]]"] ;
530 -> 560 ;
561 [label="entropy = 0.0\nsamples = 13\nvalue = [[13, 0]\n[13, 0]\n[0, 13]\n[13, 0]]"] ;
560 -> 561 ;
562 [label="X[15] <= 0.5\nentropy = 0.459\nsamples = 3\nvalue = [[3, 0]\n[2, 1]\n[1, 2]\n[3, 0]]"] ;
560 -> 562 ;
563 [label="X[8] <= 0.5\nentropy = 0.5\nsamples = 2\nvalue = [[2, 0]\n[1, 1]\n[1, 1]\n[2, 0]]"] ;
562 -> 563 ;
564 [label="entropy = 0.0\nsamples = 1\nvalue = [[1, 0]\n[0, 1]\n[1, 0]\n[1, 0]]"] ;
563 -> 564 ;
565 [label="entropy = 0.0\nsamples = 1\nvalue = [[1, 0]\n[1, 0]\n[0, 1]\n[1, 0]]"] ;
563 -> 565 ;
566 [label="entropy = 0.0\nsamples = 1\nvalue = [[1, 0]\n[1, 0]\n[0, 1]\n[1, 0]]"] ;
562 -> 566 ;
567 [label="X[0] <= 0.5\nentropy = 0.607\nsamples = 24\nvalue = [[18, 6]\n[22, 2]\n[9, 15]\n[23, 1]]"] ;
529 -> 567 ;
568 [label="X[16] <= 0.5\nentropy = 0.679\nsamples = 17\nvalue = [[12, 5]\n[15, 2]\n[8, 9]\n[16, 1]]"] ;
567 -> 568 ;
569 [label="X[2] <= 0.5\nentropy = 0.604\nsamples = 10\nvalue = [[8, 2]\n[8, 2]\n[4, 6]\n[10, 0]]"] ;
568 -> 569 ;
570 [label="X[11] <= 0.5\nentropy = 0.459\nsamples = 6\nvalue = [[6, 0]\n[4, 2]\n[2, 4]\n[6, 0]]"] ;
569 -> 570 ;
571 [label="X[1] <= 0.5\nentropy = 0.459\nsamples = 3\nvalue = [[3, 0]\n[1, 2]\n[2, 1]\n[3, 0]]"] ;
570 -> 571 ;
572 [label="entropy = 0.0\nsamples = 1\nvalue = [[1, 0]\n[0, 1]\n[1, 0]\n[1, 0]]"] ;
571 -> 572 ;
573 [label="X[9] <= 0.5\nentropy = 0.5\nsamples = 2\nvalue = [[2, 0]\n[1, 1]\n[1, 1]\n[2, 0]]"] ;
571 -> 573 ;
574 [label="entropy = 0.0\nsamples = 1\nvalue = [[1, 0]\n[0, 1]\n[1, 0]\n[1, 0]]"] ;
573 -> 574 ;
575 [label="entropy = 0.0\nsamples = 1\nvalue = [[1, 0]\n[1, 0]\n[0, 1]\n[1, 0]]"] ;
573 -> 575 ;
576 [label="entropy = 0.0\nsamples = 3\nvalue = [[3, 0]\n[3, 0]\n[0, 3]\n[3, 0]]"] ;
570 -> 576 ;
577 [label="X[11] <= 0.5\nentropy = 0.5\nsamples = 4\nvalue = [[2, 2]\n[4, 0]\n[2, 2]\n[4, 0]]"] ;
569 -> 577 ;
578 [label="entropy = 0.0\nsamples = 2\nvalue = [[2, 0]\n[2, 0]\n[0, 2]\n[2, 0]]"] ;
577 -> 578 ;
579 [label="entropy = 0.0\nsamples = 2\nvalue = [[0, 2]\n[2, 0]\n[2, 0]\n[2, 0]]"] ;
577 -> 579 ;
580 [label="X[11] <= 0.5\nentropy = 0.641\nsamples = 7\nvalue = [[4, 3]\n[7, 0]\n[4, 3]\n[6, 1]]"] ;
568 -> 580 ;
581 [label="X[1] <= 0.5\nentropy = 0.485\nsamples = 5\nvalue = [[2, 3]\n[5, 0]\n[3, 2]\n[5, 0]]"] ;
580 -> 581 ;
582 [label="X[8] <= 0.5\nentropy = 0.5\nsamples = 4\nvalue = [[2, 2]\n[4, 0]\n[2, 2]\n[4, 0]]"] ;
581 -> 582 ;
583 [label="X[2] <= 0.5\nentropy = 0.5\nsamples = 2\nvalue = [[1, 1]\n[2, 0]\n[1, 1]\n[2, 0]]"] ;
582 -> 583 ;
584 [label="entropy = 0.0\nsamples = 1\nvalue = [[0, 1]\n[1, 0]\n[1, 0]\n[1, 0]]"] ;
583 -> 584 ;
585 [label="entropy = 0.0\nsamples = 1\nvalue = [[1, 0]\n[1, 0]\n[0, 1]\n[1, 0]]"] ;
583 -> 585 ;
586 [label="X[2] <= 0.5\nentropy = 0.5\nsamples = 2\nvalue = [[1, 1]\n[2, 0]\n[1, 1]\n[2, 0]]"] ;
582 -> 586 ;
587 [label="entropy = 0.0\nsamples = 1\nvalue = [[1, 0]\n[1, 0]\n[0, 1]\n[1, 0]]"] ;
586 -> 587 ;
588 [label="entropy = 0.0\nsamples = 1\nvalue = [[0, 1]\n[1, 0]\n[1, 0]\n[1, 0]]"] ;
586 -> 588 ;
589 [label="entropy = 0.0\nsamples = 1\nvalue = [[0, 1]\n[1, 0]\n[1, 0]\n[1, 0]]"] ;
581 -> 589 ;
590 [label="X[2] <= 0.5\nentropy = 0.5\nsamples = 2\nvalue = [[2, 0]\n[2, 0]\n[1, 1]\n[1, 1]]"] ;
580 -> 590 ;
591 [label="entropy = 0.0\nsamples = 1\nvalue = [[1, 0]\n[1, 0]\n[1, 0]\n[0, 1]]"] ;
590 -> 591 ;
592 [label="entropy = 0.0\nsamples = 1\nvalue = [[1, 0]\n[1, 0]\n[0, 1]\n[1, 0]]"] ;
590 -> 592 ;
593 [label="X[15] <= 0.5\nentropy = 0.296\nsamples = 7\nvalue = [[6, 1]\n[7, 0]\n[1, 6]\n[7, 0]]"] ;
567 -> 593 ;
594 [label="entropy = 0.0\nsamples = 5\nvalue = [[5, 0]\n[5, 0]\n[0, 5]\n[5, 0]]"] ;
593 -> 594 ;
595 [label="X[11] <= 0.5\nentropy = 0.5\nsamples = 2\nvalue = [[1, 1]\n[2, 0]\n[1, 1]\n[2, 0]]"] ;
593 -> 595 ;
596 [label="entropy = 0.0\nsamples = 1\nvalue = [[1, 0]\n[1, 0]\n[0, 1]\n[1, 0]]"] ;
595 -> 596 ;
597 [label="entropy = 0.0\nsamples = 1\nvalue = [[0, 1]\n[1, 0]\n[1, 0]\n[1, 0]]"] ;
595 -> 597 ;
598 [label="X[7] <= 0.5\nentropy = 0.274\nsamples = 98\nvalue = [[92, 6]\n[96, 2]\n[10, 88]\n[96, 2]]"] ;
428 -> 598 ;
599 [label="X[15] <= 0.5\nentropy = 0.187\nsamples = 76\nvalue = [[72, 4]\n[76, 0]\n[5, 71]\n[75, 1]]"] ;
598 -> 599 ;
600 [label="X[0] <= 0.5\nentropy = 0.26\nsamples = 48\nvalue = [[44, 4]\n[48, 0]\n[5, 43]\n[47, 1]]"] ;
599 -> 600 ;
601 [label="X[4] <= 0.5\nentropy = 0.317\nsamples = 36\nvalue = [[32, 4]\n[36, 0]\n[5, 31]\n[35, 1]]"] ;
600 -> 601 ;
602 [label="X[14] <= 0.5\nentropy = 0.207\nsamples = 24\nvalue = [[22, 2]\n[24, 0]\n[2, 22]\n[24, 0]]"] ;
601 -> 602 ;
603 [label="entropy = 0.0\nsamples = 15\nvalue = [[15, 0]\n[15, 0]\n[0, 15]\n[15, 0]]"] ;
602 -> 603 ;
604 [label="X[2] <= 0.5\nentropy = 0.382\nsamples = 9\nvalue = [[7, 2]\n[9, 0]\n[2, 7]\n[9, 0]]"] ;
602 -> 604 ;
605 [label="X[17] <= 0.5\nentropy = 0.432\nsamples = 7\nvalue = [[5, 2]\n[7, 0]\n[2, 5]\n[7, 0]]"] ;
604 -> 605 ;
606 [label="X[1] <= 0.5\nentropy = 0.459\nsamples = 3\nvalue = [[2, 1]\n[3, 0]\n[1, 2]\n[3, 0]]"] ;
605 -> 606 ;
607 [label="entropy = 0.5\nsamples = 2\nvalue = [[1, 1]\n[2, 0]\n[1, 1]\n[2, 0]]"] ;
606 -> 607 ;
608 [label="entropy = 0.0\nsamples = 1\nvalue = [[1, 0]\n[1, 0]\n[0, 1]\n[1, 0]]"] ;
606 -> 608 ;
609 [label="X[1] <= 0.5\nentropy = 0.406\nsamples = 4\nvalue = [[3, 1]\n[4, 0]\n[1, 3]\n[4, 0]]"] ;
605 -> 609 ;
610 [label="entropy = 0.0\nsamples = 2\nvalue = [[2, 0]\n[2, 0]\n[0, 2]\n[2, 0]]"] ;
609 -> 610 ;
611 [label="entropy = 0.5\nsamples = 2\nvalue = [[1, 1]\n[2, 0]\n[1, 1]\n[2, 0]]"] ;
609 -> 611 ;
612 [label="entropy = 0.0\nsamples = 2\nvalue = [[2, 0]\n[2, 0]\n[0, 2]\n[2, 0]]"] ;
604 -> 612 ;
613 [label="X[14] <= 0.5\nentropy = 0.469\nsamples = 12\nvalue = [[10, 2]\n[12, 0]\n[3, 9]\n[11, 1]]"] ;
601 -> 613 ;
614 [label="X[1] <= 0.5\nentropy = 0.406\nsamples = 8\nvalue = [[6, 2]\n[8, 0]\n[2, 6]\n[8, 0]]"] ;
613 -> 614 ;
615 [label="X[16] <= 0.5\nentropy = 0.459\nsamples = 6\nvalue = [[4, 2]\n[6, 0]\n[2, 4]\n[6, 0]]"] ;
614 -> 615 ;
616 [label="X[2] <= 0.5\nentropy = 0.459\nsamples = 3\nvalue = [[2, 1]\n[3, 0]\n[1, 2]\n[3, 0]]"] ;
615 -> 616 ;
617 [label="entropy = 0.0\nsamples = 2\nvalue = [[2, 0]\n[2, 0]\n[0, 2]\n[2, 0]]"] ;
616 -> 617 ;
618 [label="entropy = 0.0\nsamples = 1\nvalue = [[0, 1]\n[1, 0]\n[1, 0]\n[1, 0]]"] ;
616 -> 618 ;
619 [label="X[2] <= 0.5\nentropy = 0.459\nsamples = 3\nvalue = [[2, 1]\n[3, 0]\n[1, 2]\n[3, 0]]"] ;
615 -> 619 ;
620 [label="entropy = 0.0\nsamples = 1\nvalue = [[0, 1]\n[1, 0]\n[1, 0]\n[1, 0]]"] ;
619 -> 620 ;
621 [label="entropy = 0.0\nsamples = 2\nvalue = [[2, 0]\n[2, 0]\n[0, 2]\n[2, 0]]"] ;
619 -> 621 ;
622 [label="entropy = 0.0\nsamples = 2\nvalue = [[2, 0]\n[2, 0]\n[0, 2]\n[2, 0]]"] ;
614 -> 622 ;
623 [label="X[3] <= 0.5\nentropy = 0.406\nsamples = 4\nvalue = [[4, 0]\n[4, 0]\n[1, 3]\n[3, 1]]"] ;
613 -> 623 ;
624 [label="entropy = 0.0\nsamples = 2\nvalue = [[2, 0]\n[2, 0]\n[0, 2]\n[2, 0]]"] ;
623 -> 624 ;
625 [label="X[17] <= 0.5\nentropy = 0.5\nsamples = 2\nvalue = [[2, 0]\n[2, 0]\n[1, 1]\n[1, 1]]"] ;
623 -> 625 ;
626 [label="entropy = 0.0\nsamples = 1\nvalue = [[1, 0]\n[1, 0]\n[1, 0]\n[0, 1]]"] ;
625 -> 626 ;
627 [label="entropy = 0.0\nsamples = 1\nvalue = [[1, 0]\n[1, 0]\n[0, 1]\n[1, 0]]"] ;
625 -> 627 ;
628 [label="entropy = 0.0\nsamples = 12\nvalue = [[12, 0]\n[12, 0]\n[0, 12]\n[12, 0]]"] ;
600 -> 628 ;
629 [label="entropy = 0.0\nsamples = 28\nvalue = [[28, 0]\n[28, 0]\n[0, 28]\n[28, 0]]"] ;
599 -> 629 ;
630 [label="X[0] <= 0.5\nentropy = 0.48\nsamples = 22\nvalue = [[20, 2]\n[20, 2]\n[5, 17]\n[21, 1]]"] ;
598 -> 630 ;
631 [label="X[12] <= 0.5\nentropy = 0.475\nsamples = 16\nvalue = [[14, 2]\n[14, 2]\n[4, 12]\n[16, 0]]"] ;
630 -> 631 ;
632 [label="X[17] <= 0.5\nentropy = 0.518\nsamples = 10\nvalue = [[8, 2]\n[9, 1]\n[3, 7]\n[10, 0]]"] ;
631 -> 632 ;
633 [label="X[2] <= 0.5\nentropy = 0.296\nsamples = 7\nvalue = [[6, 1]\n[7, 0]\n[1, 6]\n[7, 0]]"] ;
632 -> 633 ;
634 [label="entropy = 0.0\nsamples = 5\nvalue = [[5, 0]\n[5, 0]\n[0, 5]\n[5, 0]]"] ;
633 -> 634 ;
635 [label="X[14] <= 0.5\nentropy = 0.5\nsamples = 2\nvalue = [[1, 1]\n[2, 0]\n[1, 1]\n[2, 0]]"] ;
633 -> 635 ;
636 [label="entropy = 0.0\nsamples = 1\nvalue = [[0, 1]\n[1, 0]\n[1, 0]\n[1, 0]]"] ;
635 -> 636 ;
637 [label="entropy = 0.0\nsamples = 1\nvalue = [[1, 0]\n[1, 0]\n[0, 1]\n[1, 0]]"] ;
635 -> 637 ;
638 [label="X[14] <= 0.5\nentropy = 0.689\nsamples = 3\nvalue = [[2, 1]\n[2, 1]\n[2, 1]\n[3, 0]]"] ;
632 -> 638 ;
639 [label="entropy = 0.0\nsamples = 1\nvalue = [[1, 0]\n[0, 1]\n[1, 0]\n[1, 0]]"] ;
638 -> 639 ;
640 [label="X[3] <= 0.5\nentropy = 0.5\nsamples = 2\nvalue = [[1, 1]\n[2, 0]\n[1, 1]\n[2, 0]]"] ;
638 -> 640 ;
641 [label="entropy = 0.0\nsamples = 1\nvalue = [[1, 0]\n[1, 0]\n[0, 1]\n[1, 0]]"] ;
640 -> 641 ;
642 [label="entropy = 0.0\nsamples = 1\nvalue = [[0, 1]\n[1, 0]\n[1, 0]\n[1, 0]]"] ;
640 -> 642 ;
643 [label="X[1] <= 0.5\nentropy = 0.325\nsamples = 6\nvalue = [[6, 0]\n[5, 1]\n[1, 5]\n[6, 0]]"] ;
631 -> 643 ;
644 [label="entropy = 0.0\nsamples = 4\nvalue = [[4, 0]\n[4, 0]\n[0, 4]\n[4, 0]]"] ;
643 -> 644 ;
645 [label="X[16] <= 0.5\nentropy = 0.5\nsamples = 2\nvalue = [[2, 0]\n[1, 1]\n[1, 1]\n[2, 0]]"] ;
643 -> 645 ;
646 [label="entropy = 0.0\nsamples = 1\nvalue = [[1, 0]\n[1, 0]\n[0, 1]\n[1, 0]]"] ;
645 -> 646 ;
647 [label="entropy = 0.0\nsamples = 1\nvalue = [[1, 0]\n[0, 1]\n[1, 0]\n[1, 0]]"] ;
645 -> 647 ;
648 [label="X[12] <= 0.5\nentropy = 0.325\nsamples = 6\nvalue = [[6, 0]\n[6, 0]\n[1, 5]\n[5, 1]]"] ;
630 -> 648 ;
649 [label="entropy = 0.0\nsamples = 4\nvalue = [[4, 0]\n[4, 0]\n[0, 4]\n[4, 0]]"] ;
648 -> 649 ;
650 [label="X[16] <= 0.5\nentropy = 0.5\nsamples = 2\nvalue = [[2, 0]\n[2, 0]\n[1, 1]\n[1, 1]]"] ;
648 -> 650 ;
651 [label="entropy = 0.0\nsamples = 1\nvalue = [[1, 0]\n[1, 0]\n[0, 1]\n[1, 0]]"] ;
650 -> 651 ;
652 [label="entropy = 0.0\nsamples = 1\nvalue = [[1, 0]\n[1, 0]\n[1, 0]\n[0, 1]]"] ;
650 -> 652 ;
}