digraph Tree {
node [shape=box] ;
0 [label="X[19] <= 0.076\nentropy = 1.0\nsamples = 1000\nvalue = [502, 498]"] ;
1 [label="X[16] <= -1.353\nentropy = 0.526\nsamples = 455\nvalue = [54, 401]"] ;
0 -> 1 [labeldistance=2.5, labelangle=45, headlabel="True"] ;
2 [label="X[19] <= -1.021\nentropy = 0.946\nsamples = 118\nvalue = [43, 75]"] ;
1 -> 2 ;
3 [label="X[16] <= -2.296\nentropy = 0.305\nsamples = 55\nvalue = [3, 52]"] ;
2 -> 3 ;
4 [label="X[4] <= -1.058\nentropy = 0.696\nsamples = 16\nvalue = [3, 13]"] ;
3 -> 4 ;
5 [label="entropy = 0.0\nsamples = 2\nvalue = [2, 0]"] ;
4 -> 5 ;
6 [label="entropy = 0.371\nsamples = 14\nvalue = [1, 13]"] ;
4 -> 6 ;
7 [label="entropy = 0.0\nsamples = 39\nvalue = [0, 39]"] ;
3 -> 7 ;
8 [label="X[15] <= -0.689\nentropy = 0.947\nsamples = 63\nvalue = [40, 23]"] ;
2 -> 8 ;
9 [label="X[16] <= -1.593\nentropy = 0.871\nsamples = 24\nvalue = [7, 17]"] ;
8 -> 9 ;
10 [label="entropy = 0.0\nsamples = 13\nvalue = [0, 13]"] ;
9 -> 10 ;
11 [label="entropy = 0.946\nsamples = 11\nvalue = [7, 4]"] ;
9 -> 11 ;
12 [label="X[8] <= 0.016\nentropy = 0.619\nsamples = 39\nvalue = [33, 6]"] ;
8 -> 12 ;
13 [label="entropy = 0.764\nsamples = 27\nvalue = [21, 6]"] ;
12 -> 13 ;
14 [label="entropy = 0.0\nsamples = 12\nvalue = [12, 0]"] ;
12 -> 14 ;
15 [label="X[19] <= -0.935\nentropy = 0.207\nsamples = 337\nvalue = [11, 326]"] ;
1 -> 15 ;
16 [label="entropy = 0.0\nsamples = 195\nvalue = [0, 195]"] ;
15 -> 16 ;
17 [label="X[13] <= -1.164\nentropy = 0.393\nsamples = 142\nvalue = [11, 131]"] ;
15 -> 17 ;
18 [label="X[1] <= 1.09\nentropy = 0.65\nsamples = 66\nvalue = [11, 55]"] ;
17 -> 18 ;
19 [label="entropy = 0.586\nsamples = 64\nvalue = [9, 55]"] ;
18 -> 19 ;
20 [label="entropy = 0.0\nsamples = 2\nvalue = [2, 0]"] ;
18 -> 20 ;
21 [label="entropy = 0.0\nsamples = 76\nvalue = [0, 76]"] ;
17 -> 21 ;
22 [label="X[15] <= 0.155\nentropy = 0.676\nsamples = 545\nvalue = [448, 97]"] ;
0 -> 22 [labeldistance=2.5, labelangle=-45, headlabel="False"] ;
23 [label="X[16] <= -1.71\nentropy = 0.876\nsamples = 328\nvalue = [231, 97]"] ;
22 -> 23 ;
24 [label="entropy = 0.0\nsamples = 10\nvalue = [0, 10]"] ;
23 -> 24 ;
25 [label="X[1] <= -1.79\nentropy = 0.847\nsamples = 318\nvalue = [231, 87]"] ;
23 -> 25 ;
26 [label="X[16] <= 0.787\nentropy = 0.729\nsamples = 231\nvalue = [184, 47]"] ;
25 -> 26 ;
27 [label="entropy = 0.693\nsamples = 226\nvalue = [184, 42]"] ;
26 -> 27 ;
28 [label="entropy = 0.0\nsamples = 5\nvalue = [0, 5]"] ;
26 -> 28 ;
29 [label="X[15] <= -0.581\nentropy = 0.995\nsamples = 87\nvalue = [47, 40]"] ;
25 -> 29 ;
30 [label="entropy = 0.831\nsamples = 38\nvalue = [10, 28]"] ;
29 -> 30 ;
31 [label="entropy = 0.803\nsamples = 49\nvalue = [37, 12]"] ;
29 -> 31 ;
32 [label="entropy = 0.0\nsamples = 217\nvalue = [217, 0]"] ;
22 -> 32 ;
}